SVM-light Version V6.02
0 # kernel type
3 # kernel parameter -d 
1 # kernel parameter -g 
1 # kernel parameter -s 
1 # kernel parameter -r 
empty# kernel parameter -u 
101387 # highest feature index 
18457 # number of training documents 
2818 # number of support vectors plus 1 
-0.062469692 # threshold b, each following line is a SV (starting with alpha*y)
0.0097920719619923220211621384123646 1:1 3:1 6:1 17:1 24:1 29:1 32:1 34:1 39:1 40:1 45:1 69:1 73:1 78:1 88:1 89:1 107:1 175:1 178:1 240:1 274:1 333:1 337:1 382:1 414:1 492:1 495:1 540:1 544:1 604:1 608:1 711:1 797:1 803:1 849:1 1005:1 1197:1 1223:1 2211:1 2285:1 2321:1 2373:1 2382:1 2426:1 2625:1 2721:1 2834:1 2933:1 3050:1 3206:1 3506:1 4695:1 5109:1 5606:1 5993:1 6590:1 7241:1 7691:1 8934:1 15212:1 16698:1 17286:1 19077:1 26257:1 29240:1 32969:1 36026:1 38970:1 42582:1 62734:1 64995:1 66785:1 78891:1 81636:1 86793:1 86794:1 86795:1 86796:1 86797:1 86798:1 86799:1 86800:1 86801:1 86802:1 86803:1 86804:1 #
0.0097920719619923220211621384123646 1:1 294:1 306:1 307:1 308:1 375:1 604:1 611:1 1186:1 3363:1 8900:1 18231:1 18254:1 24587:1 24603:1 51980:1 51981:1 51982:1 51983:1 51984:1 51985:1 51986:1 51987:1 51988:1 51989:1 51990:1 51991:1 51992:1 #
0.0084719173951892570023636253040422 1:1 3:1 6:1 10:1 12:1 14:1 17:1 19:1 21:1 22:1 24:1 45:1 66:1 69:1 74:1 81:1 92:1 112:1 121:1 122:1 142:1 143:1 146:1 152:1 173:1 178:1 199:1 244:1 287:1 344:1 414:1 424:1 451:1 466:1 520:1 528:1 537:1 594:1 605:1 644:1 676:1 697:1 754:1 842:1 849:1 885:1 886:1 894:1 896:1 911:1 922:1 1070:1 1201:1 1277:1 1289:1 1325:1 1328:1 1565:1 1591:1 1592:1 1602:1 1616:1 1637:1 1643:1 1647:1 1708:1 1907:1 1975:1 2110:1 2219:1 2225:1 2345:1 2430:1 3022:1 3071:1 3211:1 3466:1 3554:1 3805:1 4063:1 5310:1 5508:1 6111:1 6221:1 7781:1 7805:1 8086:1 9820:1 11664:1 11820:1 11821:1 11845:1 11913:1 13957:1 14863:1 15203:1 17097:1 17154:1 22921:1 24836:1 30963:1 39323:1 47132:1 47133:1 59479:1 59480:1 59481:1 59482:1 59483:1 59484:1 #
-0.0097920719619923220211621384123646 1:1 56:1 57:1 1424:1 7086:1 #
-0.0097920719619923220211621384123646 1:1 3:1 6:1 10:1 15:1 16:1 17:1 19:1 22:1 24:1 28:1 50:1 56:1 66:1 74:1 102:1 147:1 240:1 287:1 314:1 335:1 478:1 504:1 508:1 601:1 602:1 603:1 604:1 605:1 606:1 607:1 608:1 609:1 610:1 611:1 612:1 613:1 614:1 615:1 616:1 617:1 618:1 #
0.0097920719619923220211621384123646 1:1 3:1 152:1 292:1 293:1 294:1 295:1 296:1 297:1 298:1 299:1 300:1 301:1 302:1 303:1 304:1 305:1 306:1 307:1 308:1 309:1 310:1 311:1 312:1 313:1 314:1 315:1 316:1 317:1 318:1 319:1 320:1 321:1 322:1 323:1 324:1 325:1 326:1 327:1 #
-0.0097920719619923220211621384123646 1:1 3:1 6:1 10:1 24:1 199:1 1087:1 1581:1 2340:1 3832:1 3833:1 5423:1 #
0.0097920719619923220211621384123646 1:1 19:1 56:1 74:1 178:1 244:1 472:1 710:1 766:1 1255:1 1256:1 1257:1 1258:1 1259:1 1260:1 1261:1 1262:1 1263:1 1264:1 1265:1 1266:1 1267:1 1268:1 #
0.0012548093129084352329027929329186 1:1 3:1 6:1 10:1 14:1 17:1 19:1 21:1 28:1 33:1 34:1 45:1 56:1 57:1 66:1 69:1 75:1 81:1 83:1 88:1 90:1 98:1 107:1 150:1 161:1 178:1 181:1 186:1 187:1 192:1 203:1 244:1 258:1 287:1 336:1 414:1 478:1 520:1 535:1 551:1 555:1 557:1 560:1 577:1 585:1 594:1 674:1 679:1 715:1 849:1 964:1 1056:1 1108:1 1123:1 1173:1 1253:1 1285:1 1311:1 1448:1 1464:1 1474:1 1591:1 1592:1 1603:1 1609:1 1772:1 1903:1 1989:1 2133:1 2165:1 2368:1 2410:1 2518:1 2765:1 2768:1 2794:1 2805:1 2827:1 2908:1 3068:1 3178:1 3204:1 3259:1 3377:1 3628:1 3734:1 3933:1 3946:1 4078:1 4183:1 4220:1 4365:1 4615:1 4752:1 5089:1 5139:1 5154:1 5182:1 5211:1 5419:1 5675:1 5999:1 6084:1 6262:1 7031:1 8213:1 8310:1 8366:1 8717:1 10824:1 11347:1 13163:1 13847:1 13888:1 14263:1 14863:1 15008:1 15020:1 15562:1 16273:1 16484:1 17133:1 17393:1 17443:1 18679:1 21789:1 23121:1 23818:1 31256:1 31257:1 31258:1 31259:1 31260:1 31261:1 31262:1 31263:1 31264:1 31265:1 31266:1 31267:1 31268:1 31269:1 31270:1 31271:1 31272:1 31273:1 #
0.0064529908551546905776108431496141 1:1 3:1 6:1 8:1 12:1 28:1 29:1 33:1 34:1 56:1 69:1 70:1 71:1 110:1 142:1 148:1 166:1 178:1 187:1 247:1 274:1 335:1 388:1 424:1 472:1 555:1 691:1 922:1 1541:1 1572:1 1695:1 1712:1 2666:1 3200:1 3627:1 5414:1 7645:1 8467:1 8855:1 10518:1 10820:1 13375:1 20238:1 26343:1 53366:1 53367:1 53368:1 53369:1 56308:1 74814:1 #
-0.0097920719619923220211621384123646 1:1 3:1 98:1 1016:1 1510:1 1591:1 1592:1 3174:1 3589:1 32939:1 49555:1 49556:1 #
-0.0097920719619923220211621384123646 1:1 3:1 98:1 1591:1 1592:1 5408:1 20933:1 68383:1 76012:1 #
-0.0097920719619923220211621384123646 1:1 3:1 411:1 766:1 1126:1 4077:1 4375:1 17008:1 #
-0.0097920719619923220211621384123646 1:1 3:1 48:1 649:1 682:1 1026:1 1082:1 3732:1 12691:1 67980:1 #
-0.0097920719619923220211621384123646 1:1 535:1 798:1 880:1 1087:1 3174:1 4719:1 #
0.0097920719619923220211621384123646 1:1 481:1 1049:1 1467:1 86350:1 #
0.0097920719619923220211621384123646 1:1 3:1 6:1 8:1 10:1 12:1 14:1 17:1 19:1 21:1 22:1 24:1 28:1 33:1 45:1 50:1 66:1 69:1 73:1 81:1 88:1 90:1 92:1 93:1 107:1 121:1 134:1 142:1 160:1 161:1 171:1 175:1 178:1 187:1 192:1 203:1 208:1 213:1 239:1 240:1 244:1 258:1 267:1 274:1 280:1 283:1 286:1 287:1 336:1 413:1 414:1 452:1 453:1 460:1 463:1 477:1 478:1 498:1 520:1 535:1 538:1 540:1 551:1 564:1 565:1 578:1 585:1 590:1 605:1 618:1 654:1 682:1 691:1 739:1 743:1 744:1 792:1 803:1 885:1 896:1 910:1 921:1 925:1 933:1 940:1 958:1 980:1 1067:1 1086:1 1135:1 1141:1 1161:1 1173:1 1198:1 1243:1 1312:1 1315:1 1349:1 1448:1 1458:1 1539:1 1565:1 1589:1 1623:1 1631:1 1649:1 1715:1 1767:1 1780:1 1797:1 1806:1 1948:1 2021:1 2070:1 2137:1 2156:1 2257:1 2266:1 2272:1 2365:1 2385:1 2470:1 2550:1 2585:1 2628:1 2727:1 2923:1 2926:1 3000:1 3184:1 3211:1 3635:1 3721:1 3889:1 3916:1 3938:1 3940:1 3953:1 4045:1 4464:1 4613:1 4715:1 4793:1 5414:1 5415:1 5548:1 5579:1 5685:1 5817:1 5999:1 6031:1 6382:1 6411:1 6555:1 6573:1 6905:1 6941:1 6946:1 7092:1 7369:1 7669:1 8032:1 8630:1 8674:1 8747:1 8892:1 9821:1 9896:1 10108:1 10372:1 12737:1 12973:1 13873:1 14126:1 17674:1 17954:1 18119:1 25704:1 27942:1 35328:1 35329:1 35330:1 35331:1 #
0.0097920719619923220211621384123646 1:1 6:1 8:1 14:1 16:1 17:1 19:1 21:1 28:1 33:1 39:1 45:1 56:1 57:1 66:1 69:1 74:1 78:1 81:1 87:1 88:1 92:1 107:1 136:1 140:1 142:1 143:1 152:1 159:1 160:1 161:1 165:1 174:1 175:1 178:1 187:1 192:1 194:1 199:1 203:1 215:1 248:1 259:1 274:1 287:1 335:1 344:1 414:1 426:1 452:1 467:1 520:1 535:1 536:1 540:1 544:1 574:1 577:1 600:1 608:1 657:1 665:1 712:1 744:1 757:1 798:1 870:1 896:1 937:1 941:1 1070:1 1087:1 1138:1 1173:1 1243:1 1253:1 1637:1 1829:1 1913:1 1960:1 2017:1 2121:1 2252:1 2385:1 2411:1 2418:1 2433:1 2487:1 2546:1 2829:1 2976:1 3098:1 3384:1 3593:1 3706:1 4014:1 4065:1 5532:1 6146:1 6574:1 7176:1 7249:1 7268:1 7759:1 7783:1 8866:1 11141:1 11687:1 12060:1 12080:1 13445:1 13938:1 14298:1 14746:1 15461:1 16336:1 16421:1 16960:1 17096:1 17270:1 17511:1 17992:1 18560:1 19691:1 20262:1 21392:1 25888:1 31069:1 37880:1 37894:1 39841:1 45803:1 46086:1 48390:1 48904:1 49082:1 49214:1 49777:1 50332:1 50333:1 50334:1 50335:1 50336:1 50337:1 50338:1 50339:1 50340:1 50341:1 50342:1 50343:1 50344:1 50345:1 50346:1 50347:1 50348:1 50349:1 50350:1 50351:1 50352:1 50353:1 50354:1 50355:1 50356:1 50357:1 50358:1 50359:1 50360:1 50361:1 50362:1 50363:1 50364:1 50365:1 50366:1 50367:1 50368:1 #
0.0097920719619923220211621384123646 1:1 6:1 8:1 17:1 88:1 98:1 171:1 203:1 892:1 1365:1 1369:1 1436:1 1480:1 2460:1 2479:1 3097:1 4747:1 7836:1 35835:1 #
-0.0074423298442709883218637578750077 1:1 6:1 17:1 45:1 55:1 69:1 74:1 160:1 178:1 237:1 242:1 244:1 477:1 520:1 721:1 754:1 849:1 870:1 1063:1 1066:1 1173:1 1267:1 2071:1 3176:1 7752:1 9128:1 10107:1 11048:1 20044:1 37502:1 #
-0.0097920719619923220211621384123646 1:1 3:1 29:1 56:1 57:1 88:1 178:1 411:1 649:1 730:1 1126:1 1272:1 1360:1 1571:1 2789:1 6877:1 17008:1 52678:1 #
-0.0097920719619923220211621384123646 1:1 3:1 8:1 88:1 156:1 178:1 273:1 274:1 414:1 958:1 1070:1 1571:1 1712:1 2462:1 2476:1 4704:1 4744:1 6126:1 8381:1 17054:1 22485:1 34089:1 #
0.0097920719619923220211621384123646 1:1 3:1 6:1 12:1 14:1 16:1 19:1 45:1 56:1 57:1 69:1 74:1 90:1 98:1 142:1 161:1 175:1 178:1 187:1 199:1 212:1 244:1 287:1 337:1 452:1 630:1 649:1 654:1 655:1 670:1 845:1 870:1 938:1 1064:1 1118:1 1162:1 1318:1 1591:1 1617:1 1677:1 1687:1 1820:1 1961:1 2164:1 2983:1 3093:1 9060:1 14710:1 17096:1 17637:1 18037:1 20520:1 24434:1 31702:1 31703:1 31704:1 31705:1 #
-0.0040442125476873782424780401356657 1:1 3:1 6:1 8:1 12:1 14:1 16:1 17:1 19:1 21:1 22:1 24:1 28:1 32:1 33:1 34:1 45:1 56:1 57:1 58:1 66:1 69:1 71:1 73:1 74:1 76:1 77:1 78:1 81:1 83:1 88:1 89:1 90:1 92:1 94:1 95:1 98:1 103:1 104:1 107:1 109:1 110:1 111:1 130:1 140:1 142:1 150:1 160:1 161:1 164:1 168:1 171:1 175:1 178:1 187:1 190:1 196:1 197:1 203:1 208:1 212:1 213:1 240:1 244:1 247:1 248:1 251:1 258:1 267:1 286:1 335:1 410:1 413:1 414:1 422:1 426:1 435:1 450:1 452:1 460:1 466:1 484:1 498:1 504:1 517:1 528:1 536:1 537:1 539:1 544:1 551:1 555:1 565:1 570:1 577:1 582:1 585:1 594:1 605:1 608:1 615:1 617:1 636:1 637:1 641:1 644:1 649:1 654:1 693:1 711:1 714:1 719:1 721:1 724:1 731:1 738:1 739:1 740:1 750:1 754:1 759:1 764:1 781:1 792:1 803:1 820:1 842:1 849:1 866:1 870:1 882:1 885:1 894:1 896:1 923:1 965:1 996:1 1005:1 1026:1 1044:1 1060:1 1070:1 1079:1 1086:1 1087:1 1092:1 1109:1 1113:1 1123:1 1125:1 1131:1 1135:1 1136:1 1145:1 1146:1 1147:1 1191:1 1192:1 1194:1 1223:1 1234:1 1243:1 1244:1 1250:1 1253:1 1283:1 1305:1 1349:1 1448:1 1469:1 1487:1 1489:1 1535:1 1539:1 1551:1 1565:1 1571:1 1589:1 1591:1 1592:1 1631:1 1636:1 1637:1 1642:1 1652:1 1677:1 1708:1 1716:1 1811:1 1827:1 1910:1 1916:1 2000:1 2017:1 2121:1 2149:1 2175:1 2198:1 2255:1 2273:1 2286:1 2295:1 2328:1 2365:1 2384:1 2386:1 2426:1 2432:1 2436:1 2448:1 2494:1 2559:1 2606:1 2642:1 2714:1 2742:1 2788:1 2811:1 2845:1 2870:1 2924:1 2931:1 2937:1 2999:1 3000:1 3003:1 3050:1 3057:1 3100:1 3110:1 3112:1 3144:1 3165:1 3211:1 3212:1 3214:1 3218:1 3219:1 3265:1 3482:1 3484:1 3507:1 3514:1 3658:1 3751:1 3762:1 3784:1 3861:1 3949:1 3953:1 4030:1 4035:1 4095:1 4101:1 4122:1 4183:1 4545:1 4623:1 4697:1 4758:1 4815:1 5084:1 5090:1 5118:1 5135:1 5222:1 5230:1 5246:1 5275:1 5279:1 5376:1 5393:1 5543:1 5565:1 5566:1 5594:1 5612:1 5675:1 5698:1 5713:1 5819:1 5864:1 5984:1 6002:1 6075:1 6095:1 6251:1 6286:1 6338:1 6406:1 6449:1 6525:1 6527:1 6681:1 6736:1 6845:1 7081:1 7237:1 7238:1 7268:1 7342:1 7651:1 7661:1 7780:1 7782:1 7846:1 7974:1 8002:1 8445:1 8452:1 8523:1 8529:1 8713:1 8722:1 9125:1 9234:1 9352:1 9380:1 9427:1 9465:1 9796:1 9982:1 10068:1 10353:1 10569:1 10620:1 10635:1 10724:1 10746:1 11080:1 11733:1 12497:1 12769:1 13204:1 13444:1 13868:1 13892:1 13915:1 13922:1 13923:1 13924:1 13925:1 13926:1 13927:1 13928:1 13929:1 14148:1 14241:1 14448:1 14476:1 16030:1 16537:1 16832:1 16991:1 18236:1 20007:1 20483:1 20946:1 22616:1 23544:1 24663:1 24826:1 24845:1 25544:1 25856:1 26189:1 27566:1 29092:1 29904:1 30136:1 30227:1 33145:1 33698:1 35327:1 36342:1 39600:1 40559:1 41555:1 44531:1 46324:1 47327:1 51236:1 56451:1 73629:1 82195:1 82323:1 86161:1 101156:1 101157:1 101158:1 101159:1 101160:1 101161:1 101162:1 101163:1 101164:1 101165:1 101166:1 101167:1 101168:1 101169:1 101170:1 #
0.0097920719619923220211621384123646 1:1 6:1 19:1 28:1 45:1 56:1 69:1 76:1 88:1 124:1 142:1 194:1 199:1 212:1 273:1 287:1 290:1 576:1 630:1 1361:1 2360:1 4234:1 4398:1 7241:1 8976:1 17096:1 34815:1 44139:1 49930:1 96628:1 96629:1 #
0.0072348693728431622690377977846765 1:1 3:1 8:1 16:1 17:1 19:1 39:1 56:1 73:1 108:1 145:1 178:1 181:1 247:1 287:1 388:1 426:1 488:1 495:1 723:1 737:1 764:1 766:1 772:1 940:1 1081:1 1617:1 1820:1 2149:1 2459:1 4470:1 4680:1 7237:1 7379:1 8294:1 10943:1 13775:1 18391:1 29904:1 74297:1 74298:1 74299:1 74300:1 90667:1 90668:1 #
-0.0097920719619923220211621384123646 1:1 6:1 8:1 17:1 21:1 22:1 24:1 30:1 81:1 155:1 239:1 287:1 607:1 900:1 1244:1 1325:1 1616:1 2370:1 2390:1 2805:1 7268:1 14167:1 18692:1 44750:1 52968:1 #
0.0097920719619923220211621384123646 1:1 3:1 14:1 90:1 161:1 375:1 764:1 1267:1 1615:1 1645:1 3144:1 9084:1 10490:1 19725:1 25858:1 40908:1 #
0.0097920719619923220211621384123646 1:1 3:1 6:1 17:1 21:1 22:1 24:1 28:1 31:1 69:1 74:1 81:1 90:1 94:1 98:1 102:1 108:1 116:1 142:1 145:1 159:1 161:1 165:1 171:1 173:1 175:1 177:1 192:1 237:1 239:1 247:1 278:1 340:1 414:1 422:1 478:1 484:1 571:1 613:1 643:1 644:1 665:1 723:1 725:1 842:1 870:1 929:1 931:1 958:1 996:1 1088:1 1099:1 1178:1 1421:1 1482:1 1559:1 1570:1 1643:1 1645:1 2156:1 2259:1 2306:1 2321:1 2464:1 2477:1 2714:1 2807:1 2963:1 3017:1 3092:1 3207:1 3227:1 3230:1 3231:1 3256:1 3707:1 4059:1 4220:1 4806:1 5057:1 5261:1 5543:1 6032:1 6261:1 6541:1 7050:1 7268:1 7841:1 9849:1 13395:1 14703:1 24633:1 25128:1 25553:1 29110:1 29541:1 35906:1 70837:1 74603:1 74604:1 74605:1 74606:1 74607:1 74608:1 74609:1 74610:1 74611:1 74612:1 74613:1 74614:1 74615:1 74616:1 74617:1 74618:1 74619:1 74620:1 74621:1 74622:1 74623:1 74624:1 74625:1 74626:1 74627:1 74628:1 74629:1 74630:1 74631:1 74632:1 74633:1 74634:1 74635:1 74636:1 74637:1 74638:1 74639:1 74640:1 #
-0.0097920719619923220211621384123646 1:1 3:1 6:1 12:1 16:1 17:1 19:1 33:1 45:1 56:1 69:1 78:1 81:1 86:1 98:1 103:1 104:1 113:1 142:1 152:1 154:1 159:1 160:1 161:1 175:1 187:1 194:1 196:1 215:1 239:1 240:1 244:1 261:1 283:1 332:1 337:1 344:1 466:1 481:1 528:1 544:1 551:1 555:1 571:1 604:1 608:1 653:1 654:1 670:1 710:1 711:1 757:1 824:1 870:1 1067:1 1096:1 1125:1 1173:1 1276:1 1368:1 1448:1 1469:1 1489:1 1559:1 1591:1 1688:1 2030:1 2037:1 2038:1 2464:1 2721:1 2870:1 3383:1 3615:1 3744:1 3800:1 3843:1 3950:1 4621:1 4629:1 4632:1 4830:1 5119:1 5145:1 6404:1 6713:1 7130:1 8443:1 8976:1 9284:1 10391:1 12083:1 12684:1 28069:1 28276:1 40565:1 40621:1 41213:1 45544:1 64488:1 86646:1 86647:1 86648:1 86649:1 #
0.0038230364199065593189263978501913 1:1 2:1 3:1 6:1 10:1 12:1 14:1 17:1 19:1 34:1 45:1 81:1 88:1 94:1 95:1 111:1 112:1 171:1 175:1 178:1 187:1 194:1 213:1 240:1 244:1 258:1 314:1 379:1 461:1 477:1 478:1 520:1 615:1 661:1 691:1 739:1 792:1 885:1 896:1 926:1 927:1 1135:1 1181:1 1457:1 1484:1 1821:1 2120:1 2211:1 2477:1 2533:1 2610:1 3097:1 3211:1 3348:1 4521:1 4617:1 4785:1 7227:1 7826:1 8228:1 8758:1 9409:1 12620:1 13933:1 14603:1 14896:1 15294:1 17502:1 18505:1 19124:1 23288:1 24575:1 25356:1 28114:1 28183:1 28191:1 28696:1 32500:1 33814:1 35234:1 35510:1 37988:1 38516:1 40486:1 41767:1 42479:1 43414:1 43454:1 45837:1 48960:1 49100:1 50072:1 50368:1 50645:1 52586:1 53838:1 54573:1 56024:1 56360:1 56881:1 60407:1 61603:1 61604:1 61605:1 61606:1 61607:1 61608:1 61609:1 61610:1 61611:1 61612:1 61613:1 61614:1 61615:1 61616:1 61617:1 61618:1 61619:1 61620:1 61621:1 #
-0.0097920719619923220211621384123646 1:1 3:1 6:1 8:1 12:1 17:1 19:1 21:1 22:1 28:1 29:1 32:1 33:1 34:1 45:1 56:1 57:1 58:1 66:1 69:1 71:1 74:1 76:1 81:1 86:1 88:1 89:1 98:1 107:1 108:1 124:1 136:1 141:1 142:1 143:1 149:1 152:1 161:1 165:1 166:1 175:1 178:1 181:1 186:1 187:1 194:1 196:1 209:1 212:1 219:1 239:1 240:1 244:1 247:1 248:1 253:1 267:1 268:1 274:1 283:1 287:1 290:1 335:1 368:1 388:1 410:1 426:1 452:1 453:1 466:1 467:1 481:1 488:1 492:1 498:1 528:1 530:1 540:1 544:1 550:1 551:1 570:1 574:1 575:1 585:1 604:1 630:1 636:1 638:1 641:1 644:1 649:1 655:1 662:1 667:1 691:1 693:1 705:1 710:1 711:1 712:1 721:1 723:1 731:1 757:1 764:1 766:1 769:1 772:1 801:1 820:1 870:1 882:1 884:1 888:1 1008:1 1052:1 1067:1 1068:1 1071:1 1082:1 1099:1 1125:1 1173:1 1181:1 1194:1 1267:1 1277:1 1318:1 1327:1 1349:1 1368:1 1461:1 1467:1 1591:1 1603:1 1629:1 1687:1 1701:1 1961:1 2050:1 2065:1 2149:1 2180:1 2228:1 2254:1 2260:1 2365:1 2385:1 2417:1 2427:1 2459:1 2477:1 2602:1 2644:1 2966:1 3022:1 3092:1 3141:1 3195:1 3259:1 3409:1 3530:1 3628:1 3649:1 3940:1 3998:1 4065:1 4584:1 4724:1 4753:1 4830:1 4894:1 5146:1 5410:1 5415:1 5697:1 5704:1 5793:1 6026:1 6133:1 6469:1 6473:1 6492:1 6574:1 7175:1 7673:1 7837:1 8007:1 8443:1 8747:1 8969:1 10391:1 10710:1 11310:1 12636:1 12637:1 12702:1 13844:1 17174:1 18689:1 19564:1 22978:1 23086:1 23777:1 27218:1 33971:1 38390:1 38532:1 50809:1 50833:1 51753:1 54372:1 65596:1 72702:1 72703:1 72704:1 72705:1 #
-0.0097920719619923220211621384123646 1:1 3:1 6:1 8:1 17:1 19:1 21:1 28:1 29:1 34:1 45:1 56:1 60:1 69:1 73:1 81:1 89:1 92:1 95:1 108:1 124:1 132:1 142:1 152:1 161:1 173:1 175:1 187:1 203:1 244:1 273:1 274:1 388:1 414:1 426:1 467:1 472:1 481:1 488:1 492:1 495:1 535:1 536:1 544:1 555:1 570:1 573:1 600:1 649:1 662:1 711:1 764:1 766:1 822:1 870:1 880:1 885:1 980:1 1054:1 1063:1 1073:1 1088:1 1138:1 1223:1 1229:1 1267:1 1315:1 1318:1 1367:1 1442:1 1445:1 1448:1 1480:1 1564:1 1641:1 1646:1 1651:1 1687:1 2000:1 2030:1 2175:1 2273:1 2356:1 2397:1 2419:1 2477:1 2596:1 2678:1 2714:1 2982:1 3383:1 3409:1 3509:1 3627:1 3628:1 3976:1 4003:1 4008:1 4793:1 4830:1 5163:1 5259:1 5376:1 5576:1 5578:1 5772:1 5820:1 5993:1 6002:1 6075:1 6193:1 6657:1 6841:1 6900:1 7367:1 8014:1 8030:1 8966:1 9355:1 9849:1 10484:1 10983:1 12009:1 13775:1 14650:1 15020:1 15767:1 16240:1 17174:1 18116:1 24883:1 25843:1 26334:1 26897:1 27804:1 30681:1 32501:1 38044:1 41564:1 41565:1 43158:1 46933:1 53353:1 54934:1 72646:1 96369:1 96370:1 96371:1 96372:1 96373:1 96374:1 96375:1 96376:1 #
-0.0097920719619923220211621384123646 1:1 3:1 6:1 12:1 15:1 17:1 21:1 24:1 33:1 34:1 40:1 56:1 57:1 59:1 66:1 70:1 78:1 98:1 104:1 124:1 142:1 152:1 159:1 160:1 161:1 178:1 185:1 186:1 187:1 192:1 194:1 215:1 258:1 265:1 377:1 409:1 452:1 466:1 474:1 492:1 555:1 571:1 585:1 604:1 710:1 742:1 820:1 845:1 866:1 868:1 870:1 986:1 1044:1 1065:1 1125:1 1243:1 1582:1 1591:1 1592:1 1603:1 1635:1 1826:1 1924:1 2017:1 2038:1 2549:1 2729:1 2976:1 3143:1 3984:1 4809:1 5119:1 6350:1 7125:1 7139:1 7632:1 8718:1 9279:1 11842:1 18872:1 19555:1 27034:1 39136:1 #
0.0097920719619923220211621384123646 1:1 10:1 12:1 17:1 19:1 28:1 88:1 98:1 112:1 287:1 535:1 582:1 694:1 711:1 1099:1 1573:1 1591:1 3017:1 3161:1 4782:1 5820:1 7130:1 7192:1 11121:1 39554:1 49439:1 95650:1 #
-0.0097920719619923220211621384123646 1:1 17:1 24:1 45:1 69:1 88:1 590:1 908:1 923:1 1968:1 3160:1 3628:1 3746:1 4222:1 4621:1 6022:1 9304:1 #
-0.0097920719619923220211621384123646 1:1 3:1 29:1 32:1 71:1 109:1 178:1 462:1 495:1 555:1 766:1 769:1 1277:1 1826:1 1900:1 6827:1 7698:1 32138:1 39223:1 39224:1 39225:1 #
-0.0071677836482124364717027908966429 1:1 6:1 10:1 17:1 19:1 69:1 81:1 112:1 142:1 159:1 175:1 186:1 187:1 208:1 287:1 290:1 464:1 520:1 672:1 723:1 757:1 825:1 1144:1 1571:1 2292:1 2388:1 3274:1 5414:1 6764:1 9067:1 #
0.0034175040257456369870159296198153 1:1 3:1 6:1 8:1 10:1 12:1 15:1 16:1 17:1 19:1 21:1 22:1 23:1 24:1 28:1 32:1 33:1 34:1 45:1 48:1 51:1 56:1 57:1 66:1 69:1 70:1 71:1 73:1 78:1 81:1 83:1 87:1 88:1 98:1 107:1 108:1 109:1 112:1 116:1 123:1 126:1 134:1 140:1 141:1 142:1 147:1 148:1 161:1 165:1 175:1 176:1 178:1 187:1 190:1 192:1 193:1 203:1 222:1 240:1 241:1 244:1 247:1 251:1 258:1 271:1 282:1 287:1 385:1 395:1 403:1 410:1 414:1 415:1 452:1 464:1 518:1 528:1 535:1 536:1 542:1 544:1 552:1 555:1 570:1 577:1 585:1 608:1 615:1 616:1 617:1 642:1 649:1 679:1 693:1 733:1 739:1 750:1 759:1 764:1 781:1 849:1 894:1 913:1 921:1 944:1 952:1 988:1 998:1 1011:1 1020:1 1070:1 1092:1 1094:1 1096:1 1138:1 1139:1 1161:1 1192:1 1238:1 1243:1 1253:1 1276:1 1284:1 1305:1 1317:1 1345:1 1354:1 1376:1 1381:1 1454:1 1455:1 1456:1 1467:1 1468:1 1477:1 1533:1 1571:1 1589:1 1592:1 1602:1 1640:1 1642:1 1643:1 1651:1 1708:1 1716:1 1734:1 1785:1 1811:1 1827:1 1907:1 1916:1 1974:1 1975:1 2036:1 2048:1 2053:1 2120:1 2137:1 2172:1 2211:1 2219:1 2220:1 2266:1 2322:1 2336:1 2360:1 2367:1 2372:1 2426:1 2433:1 2459:1 2476:1 2524:1 2583:1 2601:1 2604:1 2696:1 2714:1 2742:1 2781:1 2805:1 2819:1 2833:1 2897:1 2986:1 3003:1 3129:1 3141:1 3143:1 3150:1 3161:1 3174:1 3206:1 3260:1 3265:1 3348:1 3610:1 3645:1 3843:1 3886:1 3922:1 3923:1 3939:1 3946:1 3976:1 3993:1 4005:1 4027:1 4061:1 4101:1 4122:1 4127:1 4139:1 4175:1 4183:1 4309:1 4365:1 4393:1 4400:1 4404:1 4445:1 4447:1 4454:1 4627:1 4697:1 4832:1 5117:1 5146:1 5166:1 5193:1 5316:1 5325:1 5485:1 5593:1 5671:1 5888:1 5993:1 6009:1 6010:1 6033:1 6034:1 6046:1 6063:1 6297:1 6358:1 6692:1 7652:1 8083:1 8285:1 8553:1 8621:1 9982:1 10740:1 10777:1 11721:1 12432:1 12558:1 12605:1 12641:1 12764:1 12853:1 13845:1 15779:1 16819:1 17224:1 18219:1 18622:1 18951:1 19924:1 19925:1 19958:1 20848:1 20862:1 21810:1 23235:1 26146:1 26884:1 29119:1 29597:1 32363:1 33067:1 38531:1 46217:1 53006:1 53007:1 53008:1 53009:1 53010:1 53011:1 53012:1 53013:1 53014:1 53015:1 #
0.002303814101416770763336439031832 1:1 3:1 16:1 28:1 40:1 70:1 88:1 130:1 161:1 248:1 261:1 263:1 265:1 283:1 335:1 423:1 435:1 533:1 754:1 803:1 983:1 1088:1 1097:1 1145:1 1152:1 1276:1 1291:1 1317:1 1467:1 1581:1 1631:1 1781:1 1826:1 2315:1 2596:1 2714:1 2828:1 4051:1 5087:1 5135:1 5199:1 5326:1 5564:1 6129:1 6592:1 7660:1 7764:1 8020:1 10502:1 10811:1 11313:1 11735:1 15718:1 29068:1 #
-0.0097920719619923220211621384123646 1:1 3:1 72:1 81:1 103:1 178:1 683:1 684:1 988:1 1282:1 1679:1 1698:1 2266:1 2967:1 5223:1 5431:1 9231:1 10379:1 19459:1 34002:1 #
-0.0097920719619923220211621384123646 1:1 3:1 8:1 12:1 108:1 175:1 410:1 411:1 1126:1 1571:1 3568:1 3649:1 4077:1 4375:1 17008:1 #
-0.0097920719619923220211621384123646 1:1 3:1 6:1 44:1 69:1 70:1 152:1 178:1 333:1 354:1 388:1 414:1 488:1 535:1 649:1 693:1 723:1 892:1 965:1 987:1 1277:1 1278:1 1484:1 1573:1 1583:1 1671:1 1686:1 1773:1 2444:1 3633:1 3665:1 3687:1 3819:1 4429:1 4720:1 4755:1 4842:1 5481:1 5600:1 6280:1 7590:1 7722:1 8528:1 10663:1 13656:1 20065:1 24031:1 24729:1 41735:1 41736:1 41737:1 41738:1 41739:1 #
0.0060775621535419802402011590913844 1:1 9:1 17:1 31:1 39:1 70:1 107:1 145:1 178:1 212:1 228:1 240:1 482:1 495:1 649:1 766:1 1826:1 2284:1 2958:1 3569:1 3987:1 4275:1 4349:1 4530:1 4590:1 4601:1 7218:1 7709:1 8392:1 9140:1 11222:1 13926:1 18881:1 18936:1 19290:1 19340:1 20925:1 21336:1 21966:1 22926:1 24816:1 25470:1 29157:1 29502:1 31348:1 33003:1 34789:1 36021:1 37995:1 38078:1 38228:1 41725:1 44729:1 46507:1 47783:1 48815:1 56026:1 57580:1 61872:1 61873:1 61874:1 61875:1 61876:1 61877:1 61878:1 61879:1 61880:1 61881:1 61882:1 61883:1 61884:1 61885:1 61886:1 61887:1 61888:1 61889:1 61890:1 61891:1 61892:1 61893:1 61894:1 61895:1 61896:1 61897:1 61898:1 61899:1 61900:1 61901:1 61902:1 61903:1 61904:1 61905:1 61906:1 61907:1 61908:1 61909:1 61910:1 61911:1 61912:1 61913:1 61914:1 61915:1 61916:1 61917:1 61918:1 61919:1 61920:1 61921:1 61922:1 61923:1 61924:1 61925:1 61926:1 61927:1 61928:1 61929:1 61930:1 61931:1 61932:1 61933:1 61934:1 61935:1 61936:1 61937:1 61938:1 61939:1 61940:1 61941:1 61942:1 61943:1 61944:1 61945:1 61946:1 61947:1 61948:1 61949:1 61950:1 61951:1 61952:1 61953:1 61954:1 61955:1 61956:1 61957:1 61958:1 61959:1 61960:1 61961:1 61962:1 61963:1 61964:1 61965:1 61966:1 61967:1 61968:1 61969:1 61970:1 61971:1 61972:1 61973:1 61974:1 61975:1 61976:1 61977:1 61978:1 61979:1 61980:1 61981:1 61982:1 61983:1 61984:1 61985:1 61986:1 61987:1 61988:1 61989:1 61990:1 61991:1 61992:1 61993:1 61994:1 61995:1 61996:1 61997:1 61998:1 61999:1 62000:1 62001:1 62002:1 62003:1 62004:1 62005:1 62006:1 62007:1 62008:1 62009:1 62010:1 62011:1 62012:1 62013:1 62014:1 62015:1 62016:1 62017:1 62018:1 #
0.0097920719619923220211621384123646 1:1 3:1 10:1 15:1 17:1 28:1 39:1 40:1 66:1 86:1 111:1 152:1 159:1 171:1 173:1 190:1 194:1 243:1 291:1 334:1 414:1 466:1 472:1 508:1 565:1 743:1 757:1 874:1 958:1 1012:1 1044:1 1147:1 1201:1 1243:1 1989:1 2006:1 2469:1 2486:1 2654:1 2678:1 2714:1 2721:1 3003:1 3331:1 3615:1 3744:1 3899:1 3966:1 4056:1 5343:1 5410:1 5527:1 5999:1 6102:1 8002:1 8729:1 10142:1 10454:1 12254:1 17328:1 17799:1 23046:1 25823:1 25843:1 31444:1 33972:1 43083:1 51832:1 57342:1 84652:1 84653:1 84654:1 #
0.0064784160368151723005669673227658 1:1 3:1 10:1 40:1 69:1 76:1 86:1 98:1 123:1 128:1 154:1 159:1 171:1 175:1 178:1 181:1 239:1 246:1 275:1 335:1 438:1 481:1 533:1 559:1 669:1 757:1 802:1 921:1 938:1 1056:1 1078:1 1201:1 1243:1 1453:1 1629:1 1652:1 1981:1 2000:1 2006:1 2385:1 2403:1 2546:1 2596:1 2721:1 3098:1 3141:1 3316:1 3707:1 3840:1 3966:1 4009:1 4035:1 4633:1 4830:1 5109:1 5135:1 5204:1 5495:1 5638:1 5984:1 6574:1 6757:1 7751:1 9786:1 10296:1 10418:1 11532:1 11735:1 11750:1 11992:1 12070:1 12464:1 14263:1 16758:1 21309:1 23156:1 23603:1 76774:1 76775:1 76776:1 76777:1 #
0.0097920719619923220211621384123646 1:1 3:1 6:1 10:1 12:1 17:1 19:1 22:1 24:1 34:1 48:1 50:1 56:1 57:1 69:1 73:1 74:1 98:1 103:1 104:1 123:1 124:1 130:1 142:1 160:1 171:1 178:1 199:1 203:1 215:1 248:1 426:1 472:1 478:1 520:1 590:1 615:1 644:1 649:1 798:1 896:1 1026:1 1108:1 1147:1 1267:1 1315:1 1489:1 1948:1 3530:1 3939:1 4418:1 4737:1 5127:1 5271:1 5392:1 8443:1 10475:1 54053:1 54054:1 #
-0.0097920719619923220211621384123646 1:1 6:1 8:1 22:1 88:1 145:1 178:1 274:1 536:1 619:1 620:1 621:1 622:1 623:1 624:1 625:1 626:1 627:1 #
-0.0097920719619923220211621384123646 1:1 3:1 6:1 8:1 14:1 17:1 19:1 39:1 45:1 48:1 56:1 80:1 88:1 94:1 95:1 98:1 142:1 152:1 161:1 176:1 187:1 203:1 239:1 244:1 247:1 283:1 414:1 466:1 526:1 568:1 870:1 1052:1 1130:1 1208:1 1243:1 1489:1 1701:1 2223:1 2478:1 4222:1 5145:1 7220:1 7772:1 7781:1 8899:1 9308:1 9415:1 10372:1 10700:1 22412:1 22413:1 #
-0.0097920719619923220211621384123646 1:1 174:1 3832:1 3833:1 #
0.0023129967129805108910778344011305 1:1 17:1 50:1 81:1 237:1 281:1 377:1 388:1 467:1 520:1 635:1 723:1 792:1 1467:1 1615:1 1687:1 1820:1 2035:1 2379:1 2831:1 3194:1 3474:1 4135:1 4312:1 5057:1 5359:1 7087:1 7664:1 8016:1 9071:1 9082:1 9408:1 9849:1 10056:1 10342:1 11232:1 11241:1 11603:1 11739:1 11982:1 12142:1 12336:1 12582:1 12744:1 12957:1 13177:1 13514:1 14623:1 14729:1 16119:1 17374:1 18138:1 18391:1 18446:1 18545:1 18595:1 18697:1 18820:1 19365:1 19377:1 19412:1 20549:1 22348:1 22672:1 22996:1 25463:1 26600:1 26691:1 26806:1 27292:1 27935:1 28461:1 28656:1 30152:1 30255:1 31395:1 32277:1 32841:1 32869:1 34595:1 35030:1 35031:1 35664:1 37831:1 37975:1 38321:1 38416:1 38432:1 38746:1 39212:1 39461:1 39956:1 40765:1 40943:1 42034:1 42595:1 43286:1 43396:1 43539:1 43774:1 43804:1 44457:1 44591:1 45677:1 45678:1 45679:1 45680:1 45681:1 45682:1 45683:1 45684:1 45685:1 45686:1 45687:1 45688:1 45689:1 45690:1 45691:1 45692:1 45693:1 45694:1 45695:1 45696:1 45697:1 45698:1 45699:1 45700:1 45701:1 45702:1 45703:1 45704:1 45705:1 45706:1 45707:1 45708:1 45709:1 45710:1 45711:1 45712:1 45713:1 45714:1 45715:1 45716:1 45717:1 45718:1 45719:1 45720:1 45721:1 45722:1 45723:1 45724:1 45725:1 45726:1 45727:1 45728:1 45729:1 45730:1 45731:1 45732:1 45733:1 45734:1 45735:1 45736:1 45737:1 45738:1 45739:1 45740:1 45741:1 #
0.0097920719619923220211621384123646 1:1 173:1 644:1 22202:1 #
0.0051261105255389748797112403622123 1:1 3:1 6:1 8:1 10:1 12:1 17:1 19:1 21:1 22:1 28:1 40:1 41:1 45:1 56:1 57:1 66:1 69:1 72:1 73:1 74:1 75:1 81:1 86:1 90:1 92:1 95:1 98:1 107:1 108:1 111:1 112:1 145:1 147:1 149:1 152:1 159:1 171:1 173:1 178:1 187:1 196:1 215:1 216:1 239:1 240:1 283:1 286:1 335:1 337:1 399:1 414:1 466:1 488:1 495:1 518:1 520:1 534:1 535:1 566:1 570:1 593:1 601:1 605:1 608:1 616:1 636:1 676:1 754:1 871:1 1082:1 1121:1 1144:1 1160:1 1188:1 1193:1 1243:1 1276:1 1285:1 1289:1 1365:1 1367:1 1643:1 1701:1 1978:1 2000:1 2121:1 2224:1 2233:1 2315:1 2328:1 2351:1 2400:1 2502:1 2610:1 2620:1 2625:1 2638:1 2833:1 2925:1 3100:1 3259:1 3316:1 3575:1 3646:1 3665:1 3730:1 3805:1 4444:1 4758:1 4826:1 5606:1 5680:1 5810:1 5862:1 5907:1 6075:1 6111:1 6140:1 6197:1 6516:1 6561:1 7067:1 7358:1 7982:1 8747:1 9196:1 9432:1 9849:1 10356:1 10712:1 10811:1 10983:1 11333:1 11478:1 11845:1 12757:1 13644:1 14128:1 15816:1 16279:1 16306:1 16374:1 17016:1 17060:1 17388:1 17389:1 17390:1 17391:1 17392:1 17393:1 17394:1 17395:1 17396:1 17397:1 17398:1 17399:1 17400:1 17401:1 17402:1 17403:1 17404:1 17405:1 17406:1 17407:1 17408:1 17409:1 17410:1 17411:1 #
0.0097920719619923220211621384123646 1:1 6:1 17:1 19:1 22:1 28:1 40:1 48:1 56:1 57:1 69:1 81:1 88:1 92:1 124:1 142:1 148:1 152:1 159:1 175:1 186:1 192:1 212:1 215:1 244:1 246:1 323:1 332:1 335:1 415:1 608:1 803:1 870:1 880:1 1056:1 1065:1 1071:1 1079:1 1090:1 1125:1 1177:1 1318:1 1448:1 1464:1 1482:1 1626:1 1687:1 1688:1 1968:1 2017:1 2031:1 2149:1 2233:1 2829:1 3088:1 3143:1 3734:1 5144:1 5730:1 5948:1 14205:1 14865:1 15133:1 18705:1 40739:1 47694:1 47695:1 47696:1 47697:1 47698:1 47699:1 47700:1 47701:1 47702:1 47703:1 47704:1 #
-0.0097920719619923220211621384123646 1:1 6:1 10:1 17:1 19:1 21:1 28:1 282:1 667:1 731:1 891:1 937:1 1204:1 1582:1 6315:1 12685:1 20385:1 #
0.0097920719619923220211621384123646 1:1 6:1 9:1 12:1 17:1 22:1 23:1 24:1 45:1 48:1 56:1 57:1 86:1 116:1 121:1 142:1 178:1 181:1 191:1 192:1 209:1 211:1 215:1 248:1 333:1 335:1 474:1 494:1 552:1 630:1 711:1 1068:1 1105:1 1276:1 2382:1 2477:1 2596:1 2667:1 3991:1 4359:1 5181:1 7362:1 7777:1 10750:1 14313:1 15013:1 20805:1 36592:1 42681:1 42682:1 42683:1 42684:1 42685:1 42686:1 42687:1 42688:1 42689:1 42690:1 42691:1 #
0.0061814322113919835041673245257243 1:1 3:1 6:1 12:1 17:1 19:1 21:1 22:1 28:1 31:1 45:1 56:1 66:1 69:1 78:1 81:1 88:1 98:1 107:1 111:1 142:1 145:1 152:1 160:1 167:1 171:1 173:1 175:1 178:1 192:1 196:1 203:1 208:1 213:1 237:1 244:1 258:1 261:1 262:1 274:1 281:1 398:1 452:1 457:1 474:1 478:1 488:1 499:1 520:1 551:1 555:1 594:1 643:1 644:1 655:1 754:1 764:1 803:1 854:1 870:1 880:1 1276:1 1355:1 1591:1 2008:1 2464:1 2651:1 2871:1 2888:1 2910:1 3148:1 3478:1 3593:1 4029:1 4710:1 4798:1 5250:1 5390:1 5543:1 6204:1 6473:1 6609:1 6923:1 7288:1 7870:1 8148:1 8622:1 8855:1 8882:1 9090:1 9401:1 10191:1 10563:1 11699:1 11750:1 12527:1 12946:1 17102:1 17119:1 18689:1 20118:1 20580:1 20581:1 21304:1 22503:1 24857:1 30189:1 30190:1 30191:1 30192:1 30193:1 30194:1 30195:1 30196:1 30197:1 30198:1 33256:1 42341:1 47968:1 51907:1 55959:1 59743:1 65724:1 71481:1 99624:1 100898:1 100899:1 100900:1 100901:1 100902:1 100903:1 100904:1 100905:1 100906:1 #
-0.0055574870975485333307597457519478 1:1 8:1 14:1 21:1 28:1 72:1 77:1 81:1 103:1 108:1 143:1 178:1 488:1 520:1 649:1 929:1 1104:1 1308:1 1698:1 1773:1 1946:1 2318:1 3673:1 3674:1 3678:1 3679:1 3680:1 4801:1 11984:1 #
-0.002387924481797202864302720470846 1:1 6:1 8:1 12:1 19:1 45:1 66:1 81:1 88:1 142:1 143:1 152:1 178:1 187:1 258:1 291:1 330:1 414:1 426:1 443:1 452:1 474:1 520:1 555:1 625:1 629:1 638:1 682:1 695:1 724:1 1087:1 1131:1 1147:1 1161:1 1243:1 1562:1 1714:1 2384:1 2417:1 2844:1 2991:1 3318:1 3812:1 5699:1 7333:1 8522:1 9090:1 16480:1 18838:1 26022:1 41685:1 47728:1 #
-0.0097920719619923220211621384123646 1:1 39:1 45:1 88:1 108:1 165:1 244:1 282:1 427:1 467:1 488:1 520:1 721:1 725:1 731:1 740:1 764:1 778:1 987:1 1537:1 1571:1 1677:1 2131:1 2285:1 2638:1 3716:1 4296:1 5916:1 5920:1 6639:1 7869:1 8774:1 11452:1 11463:1 13795:1 17653:1 18643:1 20183:1 21277:1 26709:1 26714:1 28015:1 31171:1 31809:1 34425:1 34475:1 44977:1 60572:1 99672:1 #
-0.0056964485214101292717692182066003 1:1 3:1 24:1 33:1 75:1 80:1 81:1 98:1 103:1 104:1 171:1 178:1 186:1 244:1 464:1 608:1 649:1 683:1 798:1 828:1 938:1 1087:1 1201:1 1244:1 1289:1 1514:1 1551:1 1589:1 1637:1 1913:1 1974:1 1975:1 2285:1 2360:1 2705:1 2781:1 3035:1 3174:1 3488:1 5321:1 5327:1 5480:1 7268:1 8704:1 9166:1 10068:1 10594:1 12047:1 12757:1 14360:1 14733:1 15621:1 18311:1 20692:1 21686:1 22468:1 32086:1 39099:1 39100:1 39101:1 39102:1 #
-0.0097920719619923220211621384123646 1:1 3:1 12:1 14:1 17:1 88:1 142:1 160:1 161:1 174:1 175:1 178:1 190:1 196:1 244:1 283:1 287:1 330:1 413:1 414:1 426:1 495:1 573:1 585:1 849:1 873:1 939:1 1069:1 1110:1 1135:1 1173:1 1305:1 1456:1 2388:1 2995:1 3160:1 4190:1 4552:1 5553:1 22955:1 #
0.007582283133509128657256948002896 1:1 3:1 5:1 6:1 8:1 10:1 12:1 14:1 17:1 19:1 21:1 22:1 24:1 28:1 29:1 32:1 33:1 34:1 38:1 45:1 48:1 51:1 63:1 65:1 66:1 69:1 71:1 73:1 74:1 77:1 81:1 88:1 90:1 91:1 92:1 93:1 95:1 102:1 103:1 104:1 107:1 128:1 142:1 143:1 152:1 154:1 160:1 171:1 173:1 175:1 178:1 181:1 183:1 184:1 186:1 187:1 190:1 203:1 208:1 213:1 238:1 240:1 242:1 244:1 251:1 253:1 262:1 274:1 284:1 286:1 287:1 290:1 335:1 397:1 401:1 413:1 414:1 418:1 450:1 483:1 488:1 494:1 506:1 521:1 535:1 536:1 544:1 549:1 561:1 578:1 590:1 600:1 604:1 605:1 624:1 643:1 644:1 674:1 693:1 711:1 721:1 724:1 725:1 730:1 731:1 732:1 735:1 747:1 750:1 757:1 759:1 764:1 772:1 778:1 792:1 794:1 803:1 850:1 870:1 881:1 882:1 884:1 887:1 892:1 931:1 939:1 958:1 959:1 980:1 1001:1 1005:1 1031:1 1066:1 1069:1 1081:1 1131:1 1141:1 1146:1 1173:1 1176:1 1212:1 1243:1 1252:1 1253:1 1276:1 1303:1 1335:1 1336:1 1403:1 1435:1 1469:1 1489:1 1550:1 1557:1 1591:1 1592:1 1595:1 1609:1 1643:1 1699:1 1716:1 1734:1 1808:1 1812:1 1916:1 1971:1 1978:1 2135:1 2137:1 2147:1 2158:1 2175:1 2179:1 2180:1 2217:1 2223:1 2227:1 2239:1 2254:1 2264:1 2273:1 2321:1 2363:1 2365:1 2370:1 2373:1 2380:1 2398:1 2411:1 2460:1 2494:1 2518:1 2542:1 2559:1 2605:1 2669:1 2718:1 2777:1 2781:1 2788:1 2807:1 2844:1 2845:1 2931:1 2937:1 2959:1 2973:1 2984:1 2997:1 2999:1 3022:1 3046:1 3073:1 3102:1 3106:1 3183:1 3199:1 3211:1 3218:1 3265:1 3274:1 3384:1 3521:1 3613:1 3715:1 3717:1 3732:1 3805:1 3841:1 3933:1 3966:1 4005:1 4028:1 4053:1 4143:1 4192:1 4290:1 4543:1 4623:1 4713:1 4758:1 4791:1 4806:1 5084:1 5100:1 5127:1 5182:1 5187:1 5232:1 5256:1 5262:1 5332:1 5376:1 5480:1 5548:1 5569:1 5624:1 5656:1 5696:1 5703:1 5709:1 5938:1 5956:1 6005:1 6020:1 6062:1 6105:1 6111:1 6120:1 6126:1 6193:1 6208:1 6286:1 6415:1 6444:1 6647:1 6763:1 6861:1 6973:1 6975:1 6977:1 7037:1 7092:1 7230:1 7255:1 7292:1 7342:1 7712:1 7981:1 7983:1 8004:1 8083:1 8137:1 8311:1 8316:1 8327:1 8367:1 8611:1 8622:1 8639:1 8677:1 8763:1 8867:1 8904:1 9085:1 9102:1 9156:1 9165:1 9196:1 9415:1 9821:1 9823:1 10090:1 10594:1 10967:1 10982:1 11347:1 11349:1 11362:1 11585:1 11711:1 11846:1 11934:1 11942:1 12061:1 12139:1 12142:1 12454:1 12499:1 12640:1 13163:1 13597:1 13919:1 14141:1 14407:1 14650:1 14716:1 14806:1 15107:1 15157:1 15588:1 15910:1 16714:1 17668:1 18057:1 18062:1 18165:1 18267:1 18768:1 19144:1 19522:1 20157:1 21020:1 21971:1 22068:1 22075:1 22274:1 24934:1 25721:1 26119:1 27208:1 28209:1 28306:1 29103:1 34297:1 37635:1 37968:1 38241:1 38258:1 38806:1 46355:1 46638:1 49710:1 63182:1 66344:1 86509:1 86510:1 86511:1 86512:1 86513:1 86514:1 86515:1 86516:1 86517:1 86518:1 86519:1 86520:1 86521:1 86522:1 86523:1 86524:1 86525:1 86526:1 86527:1 86528:1 86529:1 86530:1 #
0.0024411981900024923644587637738823 1:1 3:1 6:1 8:1 10:1 12:1 14:1 15:1 17:1 19:1 21:1 22:1 24:1 28:1 33:1 40:1 45:1 48:1 50:1 56:1 57:1 59:1 66:1 69:1 70:1 71:1 72:1 73:1 78:1 81:1 84:1 87:1 88:1 90:1 92:1 104:1 107:1 121:1 142:1 143:1 152:1 153:1 154:1 159:1 160:1 161:1 166:1 171:1 175:1 178:1 181:1 184:1 187:1 190:1 193:1 195:1 196:1 199:1 212:1 215:1 247:1 248:1 250:1 258:1 259:1 262:1 264:1 271:1 274:1 280:1 282:1 283:1 287:1 290:1 333:1 334:1 338:1 344:1 385:1 395:1 413:1 414:1 417:1 424:1 452:1 453:1 457:1 460:1 461:1 484:1 498:1 520:1 526:1 528:1 530:1 537:1 540:1 551:1 552:1 555:1 557:1 566:1 570:1 571:1 572:1 585:1 588:1 589:1 593:1 594:1 600:1 608:1 637:1 654:1 670:1 691:1 695:1 710:1 711:1 757:1 846:1 849:1 870:1 882:1 896:1 929:1 937:1 1012:1 1044:1 1051:1 1052:1 1056:1 1062:1 1066:1 1067:1 1079:1 1087:1 1094:1 1112:1 1125:1 1143:1 1170:1 1173:1 1198:1 1303:1 1312:1 1315:1 1318:1 1335:1 1462:1 1486:1 1526:1 1616:1 1620:1 1663:1 1708:1 1738:1 1781:1 1829:1 1910:1 1938:1 1948:1 1968:1 2019:1 2020:1 2029:1 2030:1 2038:1 2047:1 2066:1 2070:1 2071:1 2133:1 2164:1 2410:1 2508:1 2540:1 2721:1 2729:1 2749:1 2927:1 2976:1 3065:1 3080:1 3084:1 3093:1 3098:1 3102:1 3103:1 3134:1 3143:1 3159:1 3263:1 3272:1 3339:1 3517:1 3527:1 3913:1 3940:1 3991:1 4004:1 4022:1 4030:1 4050:1 4053:1 4060:1 4183:1 4202:1 4398:1 4474:1 4610:1 4636:1 4800:1 5139:1 5154:1 5181:1 5393:1 5407:1 5614:1 5688:1 5949:1 6095:1 6146:1 6473:1 6477:1 6490:1 6574:1 6861:1 6994:1 7104:1 7130:1 7154:1 7159:1 7198:1 7225:1 7241:1 7668:1 8158:1 8256:1 8729:1 8966:1 8968:1 9441:1 10612:1 10780:1 10807:1 11048:1 11831:1 11932:1 12684:1 13856:1 14191:1 14456:1 14707:1 16415:1 16492:1 18444:1 23953:1 25823:1 28532:1 32284:1 33461:1 35672:1 36700:1 37638:1 45127:1 45938:1 47905:1 59865:1 59866:1 63093:1 74868:1 80086:1 80087:1 80088:1 80089:1 80090:1 80091:1 80092:1 #
0.0032643654720038569813644890871274 1:1 3:1 6:1 8:1 11:1 12:1 17:1 19:1 22:1 24:1 32:1 34:1 38:1 45:1 48:1 52:1 57:1 66:1 69:1 72:1 78:1 81:1 84:1 88:1 89:1 103:1 107:1 108:1 110:1 140:1 142:1 153:1 161:1 175:1 241:1 244:1 274:1 282:1 286:1 332:1 335:1 338:1 342:1 370:1 414:1 424:1 498:1 528:1 567:1 648:1 754:1 760:1 794:1 870:1 885:1 894:1 903:1 921:1 937:1 978:1 1076:1 1108:1 1121:1 1141:1 1145:1 1222:1 1225:1 1289:1 1336:1 1351:1 1377:1 1565:1 1608:1 1637:1 1651:1 1687:1 1696:1 1716:1 2005:1 2328:1 2426:1 2676:1 2718:1 2870:1 2959:1 3054:1 3143:1 3169:1 3187:1 3203:1 3377:1 3584:1 3646:1 4129:1 4365:1 4482:1 4623:1 4760:1 5174:1 5229:1 5235:1 5255:1 5302:1 5527:1 5621:1 5890:1 7268:1 7295:1 8016:1 8714:1 8978:1 9103:1 9443:1 9820:1 9884:1 11373:1 11820:1 11821:1 13039:1 14264:1 14504:1 15309:1 15779:1 20575:1 20730:1 20838:1 22502:1 24795:1 26698:1 26889:1 27219:1 30003:1 34969:1 42800:1 44911:1 45476:1 49994:1 54946:1 72058:1 92142:1 92143:1 92144:1 92145:1 92146:1 92147:1 92148:1 92149:1 92150:1 92151:1 92152:1 92153:1 92154:1 92155:1 92156:1 92157:1 #
0.0009621558036661512257683992466184 1:1 3:1 6:1 10:1 12:1 14:1 17:1 21:1 22:1 28:1 29:1 32:1 41:1 45:1 52:1 56:1 57:1 66:1 69:1 71:1 73:1 77:1 81:1 84:1 92:1 98:1 108:1 110:1 111:1 124:1 125:1 142:1 154:1 163:1 165:1 166:1 171:1 178:1 203:1 219:1 244:1 253:1 282:1 342:1 349:1 416:1 424:1 466:1 467:1 502:1 504:1 520:1 585:1 596:1 604:1 616:1 620:1 649:1 693:1 726:1 769:1 794:1 825:1 827:1 932:1 939:1 958:1 965:1 1046:1 1061:1 1077:1 1082:1 1085:1 1117:1 1138:1 1213:1 1243:1 1643:1 1692:1 1696:1 1800:1 1919:1 1978:1 2005:1 2149:1 2180:1 2211:1 2310:1 2315:1 2318:1 2338:1 2352:1 2371:1 2388:1 2408:1 2460:1 2465:1 2498:1 2545:1 2865:1 3648:1 3665:1 3667:1 3951:1 4335:1 4649:1 4702:1 5034:1 5091:1 5111:1 5204:1 5235:1 5278:1 5468:1 5480:1 5489:1 6469:1 6482:1 6639:1 7265:1 7885:1 7990:1 8889:1 9855:1 9865:1 10157:1 10678:1 15008:1 16209:1 18092:1 20003:1 24697:1 24777:1 24789:1 29962:1 41723:1 45551:1 65465:1 65466:1 65467:1 65468:1 65469:1 65470:1 65471:1 65472:1 65473:1 #
0.0097920719619923220211621384123646 1:1 6:1 69:1 86:1 94:1 98:1 145:1 159:1 161:1 166:1 439:1 711:1 8443:1 36025:1 44542:1 52659:1 61519:1 #
-0.0097920719619923220211621384123646 1:1 6:1 8:1 1571:1 3129:1 10182:1 10183:1 20184:1 #
-0.0097920719619923220211621384123646 1:1 3:1 48:1 891:1 1138:1 2460:1 3129:1 3805:1 6075:1 64375:1 #
-0.0097920719619923220211621384123646 1:1 6:1 69:1 244:1 882:1 891:1 1572:1 2013:1 #
0.0097920719619923220211621384123646 1:1 122:1 239:1 261:1 3259:1 #
0.0097920719619923220211621384123646 1:1 220:1 477:1 648:1 719:1 2321:1 3479:1 3736:1 3762:1 7642:1 8617:1 #
0.0097920719619923220211621384123646 1:1 74:1 145:1 495:1 18044:1 #
0.0097920719619923220211621384123646 1:1 19:1 74:1 160:1 243:1 495:1 566:1 576:1 1008:1 2479:1 5955:1 6086:1 8907:1 12396:1 19477:1 27258:1 28122:1 31416:1 31417:1 31418:1 31419:1 31420:1 31421:1 31422:1 31423:1 31424:1 31425:1 31426:1 31427:1 31428:1 31429:1 31430:1 31431:1 #
0.0097920719619923220211621384123646 1:1 34:1 146:1 178:1 335:1 1065:1 1223:1 2740:1 2971:1 2983:1 3381:1 3711:1 5121:1 6889:1 8255:1 13582:1 16417:1 19077:1 24917:1 25503:1 26891:1 27907:1 34577:1 34823:1 38915:1 39481:1 43267:1 46022:1 46930:1 55176:1 68023:1 68024:1 68025:1 68026:1 68027:1 68028:1 68029:1 68030:1 68031:1 68032:1 68033:1 68034:1 68035:1 68036:1 68037:1 68038:1 68039:1 68040:1 68041:1 #
-0.0097920719619923220211621384123646 1:1 8:1 145:1 160:1 880:1 2292:1 7064:1 8858:1 12019:1 15052:1 17488:1 31432:1 31433:1 #
-0.0055754552221553947688459373921432 1:1 3:1 6:1 8:1 10:1 12:1 13:1 14:1 15:1 16:1 17:1 19:1 21:1 22:1 24:1 28:1 29:1 31:1 32:1 33:1 34:1 37:1 39:1 45:1 48:1 49:1 50:1 53:1 56:1 57:1 66:1 68:1 69:1 70:1 71:1 72:1 73:1 74:1 80:1 81:1 88:1 89:1 90:1 92:1 93:1 94:1 98:1 103:1 104:1 107:1 108:1 109:1 110:1 111:1 112:1 118:1 124:1 131:1 132:1 136:1 140:1 141:1 142:1 143:1 145:1 148:1 154:1 155:1 160:1 161:1 165:1 171:1 175:1 178:1 184:1 186:1 187:1 192:1 193:1 194:1 196:1 203:1 208:1 209:1 212:1 213:1 234:1 237:1 238:1 239:1 240:1 244:1 247:1 248:1 258:1 272:1 274:1 279:1 281:1 282:1 286:1 287:1 314:1 335:1 392:1 397:1 410:1 411:1 413:1 414:1 415:1 417:1 424:1 433:1 450:1 452:1 458:1 460:1 461:1 466:1 467:1 488:1 495:1 498:1 502:1 504:1 520:1 528:1 535:1 536:1 537:1 544:1 551:1 557:1 559:1 574:1 585:1 590:1 604:1 605:1 608:1 615:1 616:1 617:1 636:1 646:1 649:1 667:1 669:1 693:1 694:1 701:1 710:1 711:1 721:1 723:1 743:1 754:1 755:1 764:1 766:1 769:1 772:1 778:1 792:1 798:1 801:1 803:1 819:1 842:1 850:1 882:1 894:1 895:1 896:1 898:1 929:1 933:1 937:1 973:1 1044:1 1051:1 1065:1 1066:1 1069:1 1087:1 1093:1 1099:1 1108:1 1120:1 1125:1 1131:1 1139:1 1144:1 1145:1 1172:1 1173:1 1175:1 1180:1 1193:1 1201:1 1204:1 1230:1 1243:1 1244:1 1272:1 1281:1 1311:1 1318:1 1335:1 1355:1 1367:1 1381:1 1387:1 1397:1 1461:1 1467:1 1472:1 1480:1 1485:1 1487:1 1489:1 1534:1 1546:1 1550:1 1565:1 1569:1 1571:1 1582:1 1591:1 1592:1 1635:1 1637:1 1649:1 1676:1 1701:1 1715:1 1716:1 1767:1 1773:1 1781:1 1811:1 1829:1 1903:1 1913:1 1915:1 1958:1 1959:1 1960:1 1968:1 1978:1 1982:1 2005:1 2038:1 2111:1 2132:1 2133:1 2137:1 2145:1 2172:1 2175:1 2179:1 2213:1 2224:1 2233:1 2255:1 2260:1 2285:1 2332:1 2361:1 2365:1 2368:1 2373:1 2379:1 2381:1 2418:1 2421:1 2426:1 2433:1 2462:1 2466:1 2470:1 2477:1 2508:1 2510:1 2560:1 2572:1 2638:1 2651:1 2661:1 2678:1 2690:1 2845:1 2855:1 2859:1 2876:1 2920:1 2931:1 2976:1 3021:1 3037:1 3048:1 3070:1 3080:1 3144:1 3163:1 3171:1 3174:1 3176:1 3177:1 3181:1 3182:1 3183:1 3186:1 3189:1 3190:1 3200:1 3207:1 3210:1 3211:1 3212:1 3213:1 3214:1 3215:1 3216:1 3217:1 3218:1 3219:1 3220:1 3221:1 3222:1 3223:1 3224:1 3225:1 3235:1 3259:1 3316:1 3317:1 3339:1 3346:1 3490:1 3546:1 3550:1 3568:1 3570:1 3589:1 3622:1 3625:1 3627:1 3633:1 3646:1 3656:1 3658:1 3740:1 3763:1 3805:1 3806:1 3838:1 3843:1 3878:1 3895:1 3950:1 4003:1 4124:1 4143:1 4191:1 4192:1 4302:1 4346:1 4399:1 4470:1 4483:1 4485:1 4631:1 4636:1 4784:1 4790:1 4797:1 4818:1 5102:1 5125:1 5136:1 5182:1 5253:1 5386:1 5393:1 5430:1 5484:1 5548:1 5569:1 5575:1 5796:1 5884:1 5931:1 5948:1 5986:1 6073:1 6209:1 6326:1 6349:1 6511:1 6525:1 6555:1 6609:1 6634:1 6712:1 7049:1 7087:1 7138:1 7178:1 7186:1 7195:1 7228:1 7229:1 7324:1 7341:1 7374:1 7647:1 7777:1 8262:1 8297:1 8622:1 8630:1 8668:1 8722:1 8739:1 9082:1 9100:1 9187:1 9354:1 9431:1 9765:1 9807:1 9825:1 9835:1 9849:1 9877:1 9881:1 9883:1 9897:1 10005:1 10029:1 10231:1 10316:1 10385:1 10418:1 10425:1 10520:1 10746:1 10805:1 10812:1 10998:1 11313:1 11417:1 11575:1 11850:1 11915:1 11965:1 12049:1 12060:1 12063:1 12144:1 12366:1 12702:1 12765:1 12766:1 12879:1 13888:1 13966:1 14102:1 14131:1 14577:1 14751:1 14824:1 14864:1 15260:1 15368:1 15750:1 15784:1 15806:1 16206:1 16255:1 16649:1 16666:1 16714:1 16761:1 18090:1 18234:1 19903:1 20124:1 20174:1 21567:1 22347:1 22612:1 23180:1 24422:1 25011:1 25026:1 25122:1 25713:1 25810:1 25828:1 27313:1 27514:1 28594:1 31120:1 32266:1 33067:1 33205:1 33682:1 33966:1 34041:1 34214:1 34791:1 35515:1 36363:1 36720:1 38989:1 39073:1 40777:1 41629:1 42951:1 43132:1 46484:1 47290:1 47528:1 50755:1 51152:1 55265:1 59974:1 61242:1 63014:1 63805:1 68859:1 73813:1 77325:1 79945:1 82273:1 82339:1 87397:1 91652:1 95477:1 95478:1 95479:1 95480:1 95481:1 95482:1 95483:1 95484:1 95485:1 95486:1 95487:1 95488:1 95489:1 95490:1 95491:1 95492:1 95493:1 95494:1 95495:1 95496:1 95497:1 95498:1 95499:1 95500:1 #
-0.0090875040246686938916198528204404 1:1 3:1 6:1 8:1 12:1 17:1 19:1 21:1 22:1 24:1 28:1 33:1 34:1 45:1 56:1 57:1 66:1 69:1 71:1 73:1 74:1 77:1 81:1 88:1 92:1 94:1 95:1 98:1 103:1 104:1 107:1 108:1 109:1 110:1 124:1 142:1 143:1 145:1 150:1 161:1 165:1 168:1 171:1 175:1 178:1 181:1 186:1 187:1 190:1 193:1 203:1 208:1 210:1 213:1 240:1 246:1 247:1 248:1 258:1 267:1 274:1 282:1 283:1 287:1 332:1 335:1 399:1 413:1 414:1 417:1 418:1 422:1 426:1 450:1 452:1 466:1 467:1 474:1 495:1 498:1 502:1 504:1 528:1 544:1 573:1 577:1 581:1 585:1 594:1 600:1 604:1 605:1 608:1 610:1 615:1 617:1 637:1 643:1 644:1 649:1 658:1 670:1 679:1 692:1 693:1 711:1 719:1 721:1 731:1 738:1 744:1 755:1 759:1 772:1 798:1 803:1 822:1 836:1 839:1 842:1 870:1 881:1 885:1 896:1 923:1 937:1 940:1 958:1 1001:1 1026:1 1044:1 1054:1 1065:1 1067:1 1069:1 1086:1 1087:1 1088:1 1113:1 1125:1 1126:1 1135:1 1141:1 1172:1 1191:1 1223:1 1236:1 1243:1 1252:1 1283:1 1318:1 1327:1 1349:1 1358:1 1387:1 1421:1 1448:1 1487:1 1489:1 1565:1 1571:1 1589:1 1591:1 1592:1 1616:1 1624:1 1637:1 1641:1 1643:1 1652:1 1674:1 1676:1 1696:1 1716:1 1723:1 1748:1 1820:1 1829:1 1916:1 2071:1 2147:1 2198:1 2255:1 2273:1 2286:1 2315:1 2328:1 2342:1 2388:1 2410:1 2411:1 2426:1 2432:1 2464:1 2479:1 2588:1 2591:1 2752:1 2788:1 2795:1 2810:1 2829:1 2931:1 2937:1 2965:1 3003:1 3050:1 3057:1 3169:1 3212:1 3214:1 3219:1 3265:1 3300:1 3316:1 3509:1 3514:1 3519:1 3544:1 3573:1 3658:1 3732:1 3751:1 3931:1 3953:1 3984:1 4005:1 4222:1 4323:1 4335:1 4429:1 4468:1 4629:1 4632:1 4806:1 5125:1 5231:1 5246:1 5252:1 5423:1 5534:1 5543:1 5560:1 5611:1 5676:1 5693:1 5698:1 5864:1 5979:1 6046:1 6191:1 6300:1 6490:1 6592:1 6658:1 7268:1 8219:1 8247:1 8269:1 8445:1 8523:1 8752:1 9085:1 9781:1 10093:1 10160:1 10331:1 10620:1 10635:1 11059:1 11080:1 11377:1 12640:1 12842:1 12846:1 13562:1 13868:1 13915:1 13922:1 13923:1 13924:1 13925:1 13926:1 13927:1 13928:1 13929:1 14062:1 14476:1 15011:1 15545:1 16644:1 18218:1 24163:1 27235:1 29881:1 34598:1 38367:1 40748:1 40794:1 46345:1 50905:1 55104:1 89986:1 94600:1 98057:1 98058:1 98059:1 98060:1 98061:1 98062:1 98063:1 98064:1 98065:1 #
-0.0034139008092038559266656605473145 1:1 3:1 6:1 8:1 10:1 12:1 14:1 17:1 19:1 21:1 24:1 32:1 33:1 34:1 37:1 45:1 48:1 52:1 56:1 57:1 66:1 69:1 73:1 74:1 81:1 83:1 88:1 92:1 94:1 98:1 103:1 104:1 107:1 142:1 145:1 146:1 149:1 154:1 160:1 161:1 171:1 175:1 177:1 178:1 184:1 186:1 187:1 190:1 192:1 208:1 240:1 250:1 251:1 267:1 282:1 283:1 287:1 290:1 314:1 338:1 343:1 360:1 388:1 396:1 414:1 424:1 520:1 526:1 551:1 574:1 575:1 590:1 596:1 605:1 608:1 669:1 672:1 691:1 711:1 744:1 796:1 803:1 842:1 870:1 871:1 896:1 950:1 958:1 1005:1 1011:1 1015:1 1031:1 1038:1 1045:1 1055:1 1066:1 1070:1 1082:1 1087:1 1093:1 1121:1 1176:1 1188:1 1191:1 1243:1 1272:1 1318:1 1450:1 1467:1 1484:1 1565:1 1591:1 1592:1 1604:1 1616:1 1637:1 1643:1 1708:1 1812:1 1916:1 1959:1 2133:1 2140:1 2172:1 2212:1 2233:1 2236:1 2325:1 2338:1 2365:1 2379:1 2426:1 2427:1 2475:1 2476:1 2552:1 2559:1 2650:1 2694:1 2803:1 2842:1 2987:1 3046:1 3100:1 3105:1 3133:1 3163:1 3206:1 3259:1 3627:1 3715:1 3844:1 3922:1 3927:1 3940:1 3946:1 3953:1 4122:1 4130:1 4147:1 4243:1 4263:1 4293:1 4441:1 4606:1 4617:1 4664:1 4695:1 4826:1 5103:1 5130:1 5232:1 5376:1 5417:1 5512:1 5529:1 5543:1 5606:1 5727:1 5742:1 5817:1 5858:1 6113:1 6414:1 6515:1 6561:1 6712:1 6861:1 7044:1 7200:1 7241:1 7342:1 8200:1 8331:1 8618:1 8678:1 8695:1 8711:1 9108:1 9465:1 9768:1 9888:1 10308:1 10676:1 10747:1 10964:1 10965:1 10969:1 10970:1 11301:1 11402:1 11632:1 12460:1 12946:1 15008:1 15910:1 16095:1 16908:1 17119:1 18838:1 19500:1 19993:1 20008:1 20159:1 20167:1 20169:1 22175:1 23719:1 29359:1 29700:1 30625:1 33378:1 35485:1 40704:1 44437:1 44457:1 44458:1 44459:1 44460:1 45140:1 45684:1 46814:1 48887:1 50551:1 51804:1 57228:1 61819:1 71318:1 86476:1 87131:1 93530:1 98849:1 98850:1 98851:1 98852:1 98853:1 98854:1 98855:1 98856:1 98857:1 #
-0.0097920719619923220211621384123646 1:1 3:1 6:1 10:1 12:1 17:1 19:1 21:1 22:1 28:1 33:1 45:1 56:1 57:1 66:1 69:1 73:1 74:1 81:1 88:1 92:1 93:1 98:1 103:1 104:1 107:1 112:1 142:1 145:1 150:1 171:1 173:1 175:1 178:1 203:1 240:1 274:1 287:1 290:1 335:1 395:1 413:1 414:1 424:1 435:1 458:1 467:1 495:1 502:1 520:1 540:1 557:1 588:1 590:1 605:1 616:1 644:1 649:1 655:1 682:1 799:1 849:1 850:1 854:1 885:1 923:1 937:1 973:1 1011:1 1026:1 1031:1 1054:1 1082:1 1142:1 1144:1 1223:1 1244:1 1250:1 1318:1 1591:1 1643:1 1663:1 1809:1 1829:1 1881:1 1959:1 2133:1 2180:1 2218:1 2255:1 2318:1 2426:1 2476:1 2502:1 2526:1 2551:1 2633:1 2788:1 2873:1 2923:1 3050:1 3080:1 3106:1 3316:1 3366:1 3521:1 3553:1 3627:1 3706:1 4028:1 4122:1 4555:1 5640:1 5641:1 5851:1 6266:1 6439:1 6889:1 7129:1 7227:1 7662:1 8711:1 9175:1 9186:1 9469:1 9947:1 10967:1 11040:1 12208:1 14484:1 14863:1 15107:1 30724:1 65831:1 65832:1 65833:1 #
0.0097920719619923220211621384123646 1:1 24:1 29:1 56:1 57:1 69:1 86:1 145:1 239:1 414:1 921:1 2309:1 3195:1 9050:1 10674:1 16945:1 90078:1 #
0.0097920719619923220211621384123646 1:1 6:1 8:1 44:1 88:1 123:1 161:1 261:1 265:1 266:1 288:1 660:1 1052:1 1065:1 1083:1 1571:1 2013:1 2132:1 2624:1 2633:1 2781:1 3991:1 4147:1 4790:1 6652:1 6893:1 6896:1 7006:1 7931:1 11965:1 18283:1 73929:1 73930:1 #
-0.0097920719619923220211621384123646 1:1 3:1 6:1 15:1 17:1 19:1 22:1 29:1 30:1 66:1 69:1 70:1 81:1 88:1 89:1 140:1 142:1 152:1 156:1 161:1 185:1 187:1 197:1 261:1 265:1 282:1 344:1 424:1 435:1 465:1 492:1 513:1 528:1 536:1 707:1 742:1 793:1 944:1 973:1 1188:1 1677:1 1733:1 1781:1 2017:1 2269:1 3000:1 3651:1 3747:1 4419:1 4473:1 4720:1 6621:1 6737:1 6926:1 11473:1 50804:1 #
-0.0097920719619923220211621384123646 1:1 17:1 19:1 86:1 159:1 160:1 181:1 283:1 330:1 1067:1 1701:1 2546:1 8394:1 10428:1 #
-0.0025525630731627873409861351206018 1:1 3:1 6:1 15:1 17:1 21:1 22:1 24:1 28:1 45:1 56:1 69:1 81:1 89:1 90:1 141:1 142:1 145:1 152:1 157:1 160:1 178:1 187:1 193:1 194:1 240:1 248:1 280:1 338:1 355:1 413:1 474:1 530:1 552:1 674:1 682:1 724:1 730:1 757:1 929:1 934:1 980:1 1049:1 1052:1 1082:1 1244:1 1318:1 1571:1 1602:1 1636:1 2474:1 2546:1 2681:1 2897:1 4212:1 4629:1 5521:1 8262:1 9149:1 10201:1 13589:1 46379:1 48810:1 48813:1 #
-0.0097920719619923220211621384123646 1:1 3:1 6:1 24:1 29:1 32:1 33:1 69:1 72:1 88:1 192:1 212:1 240:1 244:1 344:1 464:1 498:1 766:1 772:1 929:1 1044:1 1059:1 1064:1 3174:1 3991:1 5833:1 13715:1 18119:1 22449:1 #
-0.0097920719619923220211621384123646 1:1 6:1 26:1 32:1 33:1 45:1 69:1 78:1 81:1 142:1 244:1 634:1 729:1 766:1 769:1 938:1 1086:1 3651:1 4608:1 4791:1 5435:1 6420:1 6553:1 8510:1 11338:1 12082:1 15928:1 17281:1 32923:1 40031:1 #
-0.0097920719619923220211621384123646 1:1 52:1 709:1 1216:1 1345:1 1914:1 1924:1 4478:1 #
0.0097920719619923220211621384123646 1:1 10:1 12:1 17:1 19:1 24:1 33:1 45:1 70:1 78:1 81:1 92:1 132:1 152:1 165:1 194:1 474:1 926:1 1092:1 1133:1 1328:1 1571:1 1960:1 2260:1 2393:1 2479:1 2602:1 2859:1 3388:1 4554:1 6872:1 63863:1 101181:1 101182:1 #
0.0013123048696622402562589337904342 1:1 3:1 6:1 8:1 12:1 14:1 17:1 19:1 21:1 22:1 28:1 33:1 41:1 45:1 57:1 66:1 69:1 70:1 73:1 81:1 88:1 93:1 103:1 104:1 107:1 108:1 142:1 143:1 161:1 178:1 187:1 208:1 219:1 239:1 240:1 244:1 274:1 287:1 336:1 413:1 425:1 460:1 478:1 498:1 520:1 535:1 544:1 551:1 588:1 594:1 615:1 667:1 695:1 711:1 738:1 743:1 850:1 892:1 950:1 973:1 1066:1 1130:1 1144:1 1173:1 1213:1 1243:1 1244:1 1286:1 1287:1 1448:1 1461:1 1551:1 1565:1 1571:1 1591:1 1616:1 1624:1 1637:1 1647:1 1708:1 1755:1 1829:1 1913:1 1958:1 1978:1 2110:1 2220:1 2255:1 2256:1 2257:1 2269:1 2410:1 2462:1 2602:1 2763:1 3003:1 3096:1 3216:1 3633:1 3640:1 3662:1 4550:1 4555:1 4679:1 5121:1 5835:1 6324:1 6999:1 10068:1 11474:1 17438:1 19202:1 20914:1 22004:1 23206:1 24669:1 27823:1 34562:1 42919:1 42920:1 78944:1 #
0.0097920719619923220211621384123646 1:1 3:1 6:1 8:1 19:1 24:1 39:1 56:1 69:1 70:1 76:1 81:1 142:1 145:1 178:1 186:1 194:1 287:1 472:1 498:1 528:1 693:1 1085:1 1118:1 1223:1 1368:1 2211:1 2365:1 2475:1 3037:1 3525:1 3550:1 3744:1 5993:1 9268:1 10566:1 13134:1 13968:1 25034:1 25035:1 25036:1 #
-0.0036895741491904045401828415862155 1:1 3:1 14:1 29:1 107:1 109:1 124:1 145:1 152:1 165:1 168:1 231:1 467:1 488:1 649:1 711:1 764:1 1076:1 1826:1 2939:1 3003:1 3047:1 4384:1 4881:1 7393:1 7394:1 7405:1 7422:1 7428:1 7440:1 7443:1 7523:1 7533:1 7537:1 7752:1 11712:1 13447:1 37436:1 46205:1 50991:1 51001:1 52790:1 53662:1 53663:1 53664:1 53665:1 53666:1 53667:1 53668:1 53669:1 53670:1 53671:1 53672:1 53673:1 53674:1 53675:1 53676:1 53677:1 53678:1 53679:1 53680:1 53681:1 53682:1 53683:1 53684:1 53685:1 53686:1 53687:1 53688:1 53689:1 53690:1 53691:1 53692:1 53693:1 53694:1 53695:1 53696:1 53697:1 53698:1 53699:1 53700:1 53701:1 53702:1 53703:1 53704:1 53705:1 53706:1 53707:1 53708:1 53709:1 53710:1 53711:1 53712:1 53713:1 53714:1 53715:1 53716:1 53717:1 53718:1 53719:1 53720:1 53721:1 53722:1 53723:1 53724:1 53725:1 53726:1 53727:1 53728:1 53729:1 53730:1 53731:1 53732:1 53733:1 53734:1 53735:1 53736:1 53737:1 53738:1 53739:1 53740:1 53741:1 53742:1 53743:1 53744:1 53745:1 #
0.0097920719619923220211621384123646 1:1 3:1 6:1 12:1 17:1 19:1 28:1 39:1 69:1 78:1 98:1 103:1 104:1 171:1 173:1 261:1 644:1 988:1 1243:1 1808:1 2460:1 3275:1 5833:1 7222:1 23206:1 27814:1 63534:1 63535:1 #
0.0097920719619923220211621384123646 1:1 136:1 187:1 79573:1 100557:1 #
0.0097920719619923220211621384123646 1:1 17:1 19:1 410:1 1467:1 3021:1 5392:1 5640:1 20788:1 34943:1 70124:1 #
0.0020719583017180537992674160818751 1:1 3:1 31:1 32:1 57:1 124:1 152:1 167:1 172:1 220:1 338:1 349:1 354:1 375:1 388:1 466:1 467:1 488:1 649:1 667:1 763:1 764:1 766:1 854:1 880:1 929:1 984:1 1006:1 1076:1 1077:1 1273:1 1322:1 1495:1 1617:1 1677:1 1820:1 1826:1 1827:1 2321:1 2886:1 3388:1 3575:1 3644:1 5111:1 5435:1 5731:1 5897:1 6123:1 6485:1 6968:1 7128:1 7265:1 7643:1 9862:1 10949:1 12986:1 14520:1 15069:1 15907:1 15974:1 17661:1 17688:1 18217:1 20245:1 20422:1 20669:1 22163:1 22468:1 27794:1 31774:1 33345:1 48575:1 48576:1 48577:1 48578:1 48579:1 48580:1 48581:1 48582:1 48583:1 48584:1 48585:1 48586:1 48587:1 48588:1 48589:1 48590:1 48591:1 48592:1 48593:1 48594:1 48595:1 48596:1 48597:1 48598:1 48599:1 48600:1 48601:1 48602:1 48603:1 48604:1 48605:1 48606:1 #
0.0097920719619923220211621384123646 1:1 17:1 22:1 513:1 615:1 616:1 1571:1 96400:1 100545:1 #
-0.0056638233645524838077989215889829 1:1 3:1 6:1 8:1 12:1 17:1 19:1 24:1 33:1 69:1 73:1 81:1 95:1 178:1 187:1 203:1 206:1 244:1 335:1 464:1 477:1 550:1 612:1 623:1 821:1 1065:1 1239:1 1356:1 1404:1 1442:1 1565:1 1710:1 1773:1 1943:1 1948:1 1991:1 2017:1 2021:1 2121:1 2179:1 2266:1 2328:1 2372:1 2610:1 2830:1 3705:1 4613:1 5392:1 5907:1 6541:1 6542:1 6904:1 7704:1 8155:1 8214:1 8250:1 11986:1 12580:1 14381:1 21083:1 21615:1 29958:1 32721:1 37543:1 41902:1 41903:1 41904:1 41905:1 41906:1 41907:1 41908:1 41909:1 41910:1 #
0.00034494538735027212208311686580942 1:1 3:1 6:1 8:1 17:1 19:1 27:1 28:1 29:1 32:1 33:1 45:1 56:1 66:1 70:1 73:1 81:1 88:1 92:1 95:1 98:1 104:1 107:1 108:1 109:1 124:1 142:1 145:1 152:1 171:1 173:1 178:1 220:1 221:1 258:1 342:1 354:1 388:1 414:1 422:1 452:1 458:1 466:1 467:1 476:1 478:1 488:1 521:1 644:1 649:1 711:1 723:1 764:1 766:1 769:1 929:1 940:1 984:1 1006:1 1139:1 1175:1 1213:1 1244:1 1276:1 1323:1 1365:1 1369:1 1377:1 1380:1 1421:1 1485:1 1495:1 1573:1 1591:1 1679:1 1692:1 1767:1 1820:1 1826:1 1829:1 2221:1 2222:1 2223:1 2272:1 2296:1 2321:1 2361:1 2377:1 2460:1 2462:1 2496:1 2556:1 2645:1 2788:1 2865:1 3046:1 3078:1 3589:1 4053:1 4282:1 5216:1 5217:1 5292:1 5621:1 5786:1 5826:1 6120:1 6189:1 7181:1 7723:1 7740:1 7741:1 7841:1 7870:1 8002:1 8310:1 8879:1 9264:1 11118:1 11124:1 11136:1 11662:1 11910:1 12160:1 12254:1 15119:1 17520:1 17652:1 18944:1 19888:1 20515:1 20986:1 21681:1 24146:1 25125:1 25126:1 25127:1 25128:1 25137:1 25139:1 25141:1 25143:1 27256:1 28366:1 28438:1 28471:1 28472:1 28474:1 31182:1 34120:1 37900:1 43187:1 55456:1 68807:1 68808:1 68809:1 68810:1 68811:1 68812:1 68813:1 68814:1 68815:1 68816:1 68817:1 68818:1 68819:1 68820:1 68821:1 68822:1 68823:1 68824:1 68825:1 68826:1 68827:1 68828:1 68829:1 68830:1 68831:1 68832:1 68833:1 68834:1 68835:1 68836:1 #
0.005356477582976366946798663093432 1:1 3:1 6:1 10:1 69:1 73:1 74:1 81:1 124:1 159:1 171:1 178:1 194:1 274:1 370:1 723:1 809:1 1082:1 1087:1 1591:1 1660:1 2484:1 3589:1 4555:1 5854:1 5938:1 5986:1 6822:1 7217:1 9166:1 9288:1 10990:1 13185:1 13186:1 13187:1 13188:1 13189:1 13190:1 13191:1 13192:1 13193:1 13194:1 13195:1 13196:1 13197:1 13198:1 13199:1 13200:1 13201:1 13202:1 13203:1 13204:1 13205:1 13206:1 13207:1 13208:1 13209:1 13210:1 13211:1 #
-0.0097920719619923220211621384123646 1:1 10:1 56:1 57:1 682:1 891:1 937:1 1643:1 2219:1 2995:1 3003:1 3786:1 #
-0.0012961755056905427136576536284451 1:1 2:1 3:1 6:1 10:1 12:1 14:1 15:1 16:1 17:1 19:1 21:1 22:1 24:1 28:1 33:1 39:1 45:1 48:1 55:1 66:1 69:1 73:1 80:1 81:1 88:1 92:1 111:1 123:1 131:1 136:1 141:1 142:1 143:1 149:1 154:1 178:1 187:1 191:1 192:1 203:1 241:1 244:1 248:1 273:1 274:1 280:1 287:1 334:1 335:1 337:1 390:1 392:1 413:1 414:1 450:1 460:1 466:1 498:1 581:1 594:1 612:1 683:1 684:1 711:1 740:1 754:1 802:1 843:1 849:1 879:1 882:1 884:1 958:1 988:1 1021:1 1064:1 1067:1 1069:1 1073:1 1078:1 1083:1 1087:1 1107:1 1108:1 1125:1 1135:1 1137:1 1149:1 1173:1 1178:1 1198:1 1253:1 1338:1 1455:1 1618:1 1701:1 1708:1 1806:1 1982:1 2010:1 2013:1 2125:1 2132:1 2260:1 2361:1 2585:1 2615:1 2628:1 2642:1 2685:1 2714:1 2805:1 2855:1 2875:1 3021:1 3080:1 3270:1 3272:1 3339:1 3490:1 3527:1 3625:1 3628:1 3991:1 4005:1 4046:1 4193:1 4629:1 4653:1 4724:1 4737:1 5072:1 5089:1 5396:1 5532:1 6622:1 7092:1 7230:1 7374:1 8076:1 8212:1 8256:1 8319:1 8418:1 8747:1 10090:1 10705:1 10998:1 11509:1 13818:1 15856:1 16098:1 16396:1 16643:1 16999:1 17443:1 18119:1 18933:1 20529:1 21740:1 21892:1 21983:1 25700:1 27354:1 32809:1 34876:1 44211:1 50001:1 53209:1 62051:1 79590:1 79591:1 79592:1 79593:1 79594:1 #
-0.0097920719619923220211621384123646 1:1 66:1 178:1 208:1 242:1 1239:1 1697:1 2003:1 2628:1 5376:1 5547:1 9822:1 46710:1 #
0.0015347981197152650231774195788148 1:1 6:1 8:1 12:1 14:1 15:1 17:1 19:1 20:1 21:1 22:1 24:1 28:1 32:1 34:1 45:1 57:1 65:1 66:1 69:1 70:1 72:1 73:1 78:1 81:1 84:1 86:1 88:1 92:1 98:1 104:1 107:1 111:1 121:1 124:1 142:1 143:1 152:1 159:1 160:1 161:1 171:1 175:1 177:1 178:1 184:1 186:1 187:1 193:1 194:1 208:1 215:1 220:1 239:1 244:1 247:1 248:1 259:1 261:1 274:1 283:1 286:1 287:1 331:1 332:1 344:1 395:1 413:1 414:1 424:1 454:1 457:1 458:1 474:1 476:1 479:1 492:1 498:1 520:1 526:1 528:1 544:1 550:1 551:1 554:1 557:1 567:1 572:1 585:1 605:1 617:1 635:1 637:1 649:1 693:1 705:1 711:1 724:1 738:1 769:1 792:1 803:1 837:1 845:1 849:1 867:1 884:1 885:1 886:1 892:1 896:1 925:1 952:1 958:1 973:1 987:1 998:1 1012:1 1038:1 1052:1 1067:1 1069:1 1078:1 1088:1 1094:1 1096:1 1131:1 1173:1 1198:1 1244:1 1277:1 1315:1 1338:1 1349:1 1361:1 1404:1 1434:1 1461:1 1526:1 1565:1 1576:1 1592:1 1604:1 1643:1 1708:1 1721:1 1856:1 1903:1 1948:1 1959:1 2018:1 2060:1 2071:1 2121:1 2137:1 2180:1 2224:1 2254:1 2267:1 2272:1 2289:1 2311:1 2334:1 2338:1 2343:1 2351:1 2364:1 2365:1 2382:1 2410:1 2433:1 2508:1 2547:1 2571:1 2617:1 2638:1 2644:1 2681:1 2730:1 3046:1 3070:1 3080:1 3084:1 3090:1 3098:1 3143:1 3384:1 3414:1 3507:1 3523:1 3529:1 3805:1 3837:1 4018:1 4026:1 4039:1 4048:1 4067:1 4077:1 4092:1 4123:1 4183:1 4335:1 4359:1 4426:1 4460:1 4474:1 4610:1 4657:1 4702:1 4759:1 5050:1 5407:1 5414:1 5772:1 6009:1 6064:1 6149:1 6191:1 6318:1 6413:1 6510:1 6517:1 6693:1 7008:1 7075:1 7079:1 7251:1 8371:1 9429:1 9817:1 9852:1 10356:1 10412:1 10415:1 10545:1 11506:1 11711:1 12842:1 14390:1 14668:1 14827:1 15135:1 15726:1 15779:1 15808:1 17113:1 17154:1 17388:1 17645:1 18037:1 19678:1 19855:1 21140:1 21141:1 21142:1 21143:1 21144:1 21145:1 21146:1 21147:1 21148:1 21149:1 21150:1 21151:1 21152:1 21153:1 21154:1 21155:1 21156:1 21157:1 21158:1 21159:1 21160:1 21161:1 21162:1 21163:1 21164:1 21165:1 21166:1 21167:1 #
-0.0097920719619923220211621384123646 1:1 6:1 8:1 17:1 19:1 24:1 69:1 86:1 123:1 152:1 159:1 274:1 283:1 608:1 711:1 803:1 873:1 1070:1 1082:1 1087:1 1216:1 1780:1 2464:1 2976:1 4629:1 5151:1 8868:1 10023:1 10113:1 19617:1 19701:1 #
0.00029430593907254679704108002447072 1:1 3:1 6:1 10:1 12:1 17:1 28:1 30:1 45:1 56:1 57:1 66:1 70:1 71:1 72:1 81:1 84:1 89:1 92:1 109:1 110:1 161:1 165:1 166:1 192:1 203:1 221:1 239:1 253:1 267:1 280:1 335:1 349:1 466:1 495:1 520:1 561:1 596:1 613:1 615:1 617:1 667:1 701:1 721:1 726:1 766:1 769:1 772:1 950:1 1052:1 1061:1 1077:1 1104:1 1144:1 1193:1 1198:1 1213:1 1323:1 1456:1 1571:1 1679:1 1692:1 1701:1 1910:1 1919:1 1960:1 2005:1 2071:1 2255:1 2393:1 2410:1 2502:1 2545:1 2721:1 2865:1 3019:1 3259:1 3736:1 4195:1 4647:1 5111:1 5194:1 5717:1 5732:1 5784:1 5787:1 5788:1 5817:1 6136:1 6482:1 7252:1 7255:1 12672:1 17017:1 30961:1 58822:1 81068:1 #
0.0097920719619923220211621384123646 1:1 3:1 10:1 12:1 17:1 19:1 45:1 56:1 69:1 74:1 86:1 98:1 104:1 145:1 171:1 173:1 175:1 208:1 283:1 287:1 290:1 424:1 467:1 573:1 605:1 615:1 691:1 842:1 1065:1 1103:1 1110:1 1161:1 1243:1 1283:1 1565:1 1571:1 1637:1 1643:1 2174:1 2180:1 2365:1 2368:1 2502:1 3112:1 3218:1 3326:1 3388:1 4830:1 5550:1 6097:1 6510:1 7781:1 8169:1 12005:1 16719:1 22588:1 42154:1 95162:1 #
0.0097920719619923220211621384123646 1:1 3:1 6:1 8:1 12:1 17:1 29:1 30:1 31:1 45:1 56:1 57:1 69:1 70:1 71:1 73:1 84:1 88:1 94:1 109:1 142:1 163:1 171:1 178:1 182:1 240:1 244:1 287:1 335:1 344:1 377:1 424:1 444:1 467:1 488:1 570:1 574:1 575:1 581:1 605:1 637:1 669:1 764:1 781:1 921:1 1093:1 1118:1 1276:1 1366:1 1455:1 1467:1 1541:1 1569:1 1626:1 1679:1 1692:1 1696:1 2005:1 2333:1 2338:1 2389:1 2560:1 2897:1 2920:1 3073:1 3568:1 3570:1 3635:1 3841:1 4755:1 5135:1 5250:1 6113:1 8023:1 8297:1 11402:1 12804:1 15055:1 19257:1 24478:1 24675:1 25877:1 47954:1 49886:1 61565:1 100945:1 100946:1 100947:1 100948:1 100949:1 100950:1 100951:1 #
-0.0097920719619923220211621384123646 1:1 8:1 10:1 19:1 86:1 88:1 159:1 178:1 283:1 287:1 399:1 591:1 908:1 1941:1 6592:1 #
-0.0097920719619923220211621384123646 1:1 29:1 70:1 72:1 109:1 165:1 388:1 409:1 601:1 649:1 693:1 709:1 766:1 965:1 987:1 1046:1 1059:1 1066:1 1149:1 1909:1 1940:1 2289:1 2548:1 2575:1 3686:1 4647:1 5121:1 5287:1 5480:1 5763:1 7208:1 7223:1 10236:1 11412:1 11424:1 11481:1 15680:1 18102:1 18676:1 19527:1 20390:1 21936:1 25860:1 50186:1 50187:1 50188:1 50189:1 50190:1 50191:1 #
-0.0097920719619923220211621384123646 1:1 8:1 161:1 1571:1 1616:1 5408:1 14990:1 #
-0.0052891425887720659726465299854681 1:1 3:1 29:1 45:1 70:1 124:1 252:1 401:1 476:1 495:1 649:1 723:1 764:1 781:1 1046:1 1076:1 1113:1 1120:1 1179:1 1233:1 1364:1 1366:1 1367:1 1372:1 1373:1 1374:1 1375:1 1376:1 1377:1 1378:1 1380:1 1390:1 1391:1 1392:1 1393:1 1396:1 1510:1 1573:1 1735:1 2179:1 2272:1 2297:1 3260:1 3744:1 4140:1 4978:1 5615:1 7135:1 8275:1 13027:1 20031:1 38033:1 #
-0.0097920719619923220211621384123646 1:1 6:1 13:1 56:1 57:1 98:1 792:1 1571:1 1591:1 1592:1 9767:1 #
-0.0097920719619923220211621384123646 1:1 8:1 161:1 1571:1 2479:1 7211:1 #
-0.0097920719619923220211621384123646 1:1 252:1 476:1 649:1 726:1 764:1 1024:1 1120:1 1363:1 1364:1 1365:1 1366:1 1367:1 1368:1 1369:1 1370:1 1371:1 #
0.0097920719619923220211621384123646 1:1 6:1 12:1 14:1 17:1 19:1 21:1 56:1 57:1 69:1 81:1 142:1 160:1 178:1 190:1 193:1 335:1 481:1 605:1 608:1 1283:1 1824:1 1909:1 3339:1 3573:1 3843:1 6077:1 7354:1 8134:1 8425:1 9933:1 27570:1 64851:1 #
-0.0097920719619923220211621384123646 1:1 3:1 6:1 8:1 10:1 12:1 14:1 17:1 19:1 24:1 28:1 33:1 34:1 39:1 45:1 56:1 57:1 66:1 69:1 70:1 73:1 74:1 75:1 76:1 77:1 81:1 84:1 88:1 92:1 103:1 104:1 107:1 112:1 141:1 142:1 143:1 145:1 161:1 173:1 175:1 178:1 187:1 192:1 194:1 208:1 219:1 239:1 240:1 244:1 287:1 314:1 335:1 354:1 413:1 414:1 426:1 495:1 498:1 501:1 520:1 551:1 561:1 574:1 588:1 592:1 600:1 604:1 615:1 630:1 644:1 649:1 669:1 710:1 836:1 850:1 922:1 926:1 980:1 984:1 1067:1 1087:1 1095:1 1099:1 1137:1 1143:1 1285:1 1571:1 1589:1 1615:1 1654:1 1781:1 1829:1 1903:1 1958:1 2132:1 2180:1 2185:1 2220:1 2233:1 2248:1 2255:1 2257:1 2272:1 2368:1 2421:1 2477:1 2518:1 2547:1 2788:1 2945:1 2976:1 3033:1 3052:1 3110:1 3216:1 3219:1 3550:1 3627:1 3636:1 3711:1 3983:1 4117:1 4165:1 4166:1 4483:1 4665:1 4830:1 5027:1 5213:1 5278:1 5390:1 5408:1 5417:1 5654:1 5717:1 5822:1 5862:1 6841:1 7075:1 7103:1 7129:1 7241:1 7249:1 8020:1 8029:1 10416:1 12194:1 14970:1 16313:1 19201:1 20190:1 40714:1 44394:1 #
-0.0097920719619923220211621384123646 1:1 17:1 348:1 411:1 589:1 601:1 690:1 697:1 766:1 772:1 960:1 2285:1 4758:1 6579:1 #
-0.00030605769653377335424992988777149 1:1 3:1 6:1 8:1 17:1 21:1 22:1 24:1 28:1 34:1 45:1 55:1 57:1 58:1 66:1 69:1 70:1 71:1 72:1 73:1 75:1 77:1 78:1 80:1 81:1 88:1 92:1 94:1 95:1 98:1 103:1 107:1 110:1 112:1 121:1 134:1 140:1 142:1 147:1 149:1 161:1 175:1 178:1 184:1 187:1 193:1 203:1 224:1 241:1 244:1 250:1 251:1 253:1 286:1 290:1 332:1 334:1 335:1 336:1 393:1 395:1 397:1 399:1 414:1 420:1 435:1 452:1 464:1 472:1 495:1 502:1 504:1 506:1 528:1 533:1 538:1 544:1 551:1 552:1 569:1 570:1 575:1 601:1 617:1 622:1 623:1 637:1 650:1 704:1 715:1 724:1 725:1 743:1 764:1 778:1 791:1 794:1 796:1 803:1 806:1 821:1 822:1 842:1 882:1 884:1 899:1 915:1 938:1 944:1 945:1 969:1 970:1 988:1 998:1 1005:1 1010:1 1011:1 1016:1 1017:1 1020:1 1030:1 1038:1 1052:1 1058:1 1060:1 1070:1 1079:1 1087:1 1090:1 1113:1 1118:1 1131:1 1136:1 1147:1 1172:1 1185:1 1186:1 1188:1 1191:1 1193:1 1204:1 1223:1 1272:1 1276:1 1303:1 1316:1 1325:1 1345:1 1435:1 1436:1 1442:1 1448:1 1452:1 1454:1 1464:1 1467:1 1469:1 1489:1 1559:1 1567:1 1572:1 1592:1 1602:1 1626:1 1640:1 1643:1 1645:1 1699:1 1708:1 1716:1 1723:1 1741:1 1783:1 1794:1 1811:1 1812:1 1829:1 1904:1 1916:1 1962:1 1974:1 1975:1 1989:1 2036:1 2047:1 2071:1 2174:1 2211:1 2227:1 2239:1 2267:1 2288:1 2306:1 2311:1 2320:1 2334:1 2355:1 2360:1 2362:1 2368:1 2370:1 2390:1 2391:1 2414:1 2415:1 2426:1 2458:1 2460:1 2471:1 2494:1 2560:1 2563:1 2583:1 2589:1 2596:1 2605:1 2611:1 2618:1 2630:1 2641:1 2642:1 2677:1 2696:1 2712:1 2781:1 2788:1 2801:1 2804:1 2807:1 2825:1 2866:1 2870:1 2872:1 2904:1 2908:1 2910:1 3035:1 3046:1 3048:1 3081:1 3122:1 3195:1 3206:1 3265:1 3366:1 3377:1 3382:1 3471:1 3482:1 3503:1 3514:1 3546:1 3555:1 3704:1 3705:1 3706:1 3711:1 3720:1 3762:1 3767:1 3891:1 3896:1 3909:1 3930:1 3941:1 3944:1 3976:1 4053:1 4061:1 4114:1 4124:1 4127:1 4291:1 4329:1 4370:1 4382:1 4439:1 4646:1 4647:1 4697:1 4738:1 4752:1 4758:1 4818:1 4827:1 5101:1 5102:1 5107:1 5166:1 5169:1 5174:1 5306:1 5315:1 5325:1 5349:1 5357:1 5518:1 5527:1 5625:1 5753:1 5784:1 5854:1 6097:1 6261:1 6525:1 6571:1 6644:1 6650:1 6720:1 7017:1 7021:1 7082:1 7086:1 7196:1 7251:1 7295:1 7662:1 7911:1 7912:1 8002:1 8046:1 8083:1 8216:1 8364:1 8467:1 8611:1 8642:1 8653:1 8696:1 8722:1 8731:1 8874:1 8877:1 9146:1 9158:1 9443:1 9877:1 10066:1 10076:1 10473:1 10740:1 11347:1 11680:1 11690:1 12635:1 12643:1 12766:1 13403:1 14013:1 14197:1 14572:1 14645:1 15003:1 15064:1 15439:1 15571:1 17676:1 19938:1 20348:1 20639:1 20924:1 26134:1 33291:1 33608:1 35173:1 35304:1 41096:1 41097:1 41098:1 41099:1 #
-0.0045679890786809390981759726457767 1:1 3:1 6:1 8:1 10:1 12:1 14:1 15:1 17:1 19:1 21:1 24:1 29:1 33:1 34:1 45:1 56:1 57:1 66:1 69:1 73:1 74:1 81:1 88:1 89:1 90:1 92:1 94:1 98:1 107:1 110:1 121:1 136:1 140:1 142:1 148:1 160:1 161:1 178:1 184:1 187:1 194:1 203:1 222:1 239:1 247:1 248:1 287:1 290:1 330:1 411:1 414:1 417:1 424:1 438:1 466:1 476:1 488:1 495:1 504:1 520:1 544:1 551:1 573:1 600:1 605:1 711:1 731:1 744:1 757:1 781:1 792:1 822:1 842:1 885:1 892:1 896:1 898:1 906:1 921:1 926:1 937:1 998:1 1011:1 1026:1 1044:1 1056:1 1067:1 1082:1 1084:1 1087:1 1113:1 1138:1 1140:1 1228:1 1243:1 1283:1 1349:1 1456:1 1467:1 1480:1 1487:1 1589:1 1591:1 1592:1 1643:1 1660:1 1663:1 1700:1 1781:1 1829:1 1982:1 2005:1 2133:1 2260:1 2328:1 2365:1 2368:1 2373:1 2397:1 2470:1 2471:1 2479:1 2530:1 2550:1 2690:1 2714:1 2804:1 2815:1 2914:1 2920:1 3000:1 3114:1 3144:1 3211:1 3326:1 3625:1 3631:1 3635:1 4183:1 4304:1 4358:1 4421:1 4464:1 4647:1 5027:1 5097:1 5127:1 5270:1 5315:1 5399:1 5408:1 5656:1 5713:1 5777:1 5817:1 6511:1 6732:1 6841:1 7114:1 7242:1 7369:1 7770:1 8372:1 8467:1 8978:1 9118:1 9823:1 10108:1 10182:1 10357:1 10400:1 10716:1 14265:1 15359:1 15738:1 15849:1 16248:1 16461:1 16484:1 17064:1 17065:1 17236:1 20007:1 24812:1 30718:1 32507:1 32882:1 46326:1 61725:1 61726:1 61727:1 61728:1 61729:1 #
0.0097920719619923220211621384123646 1:1 3:1 6:1 12:1 17:1 19:1 21:1 22:1 24:1 28:1 31:1 32:1 33:1 56:1 66:1 69:1 73:1 78:1 81:1 92:1 98:1 108:1 115:1 152:1 155:1 171:1 173:1 175:1 186:1 192:1 193:1 208:1 234:1 235:1 257:1 264:1 335:1 388:1 389:1 414:1 454:1 457:1 461:1 466:1 478:1 520:1 535:1 551:1 643:1 644:1 649:1 665:1 796:1 803:1 807:1 849:1 892:1 932:1 1030:1 1071:1 1082:1 1145:1 1162:1 1300:1 1338:1 1591:1 1677:1 2068:1 2237:1 2247:1 2370:1 2570:1 2933:1 3079:1 3632:1 4263:1 4353:1 4761:1 5247:1 5250:1 5543:1 5793:1 6315:1 6433:1 6609:1 7222:1 7775:1 8059:1 9332:1 9823:1 10813:1 11053:1 14399:1 15027:1 15651:1 15737:1 15896:1 20361:1 20797:1 26848:1 27232:1 27941:1 30214:1 31498:1 36403:1 45149:1 48910:1 51175:1 53064:1 79441:1 82222:1 82223:1 82224:1 82225:1 82226:1 82227:1 82228:1 82229:1 82230:1 82231:1 82232:1 #
0.0097920719619923220211621384123646 1:1 3:1 6:1 14:1 17:1 24:1 45:1 56:1 66:1 69:1 73:1 81:1 92:1 107:1 110:1 142:1 174:1 175:1 178:1 187:1 190:1 192:1 208:1 244:1 286:1 335:1 413:1 414:1 415:1 424:1 466:1 502:1 528:1 549:1 551:1 567:1 585:1 640:1 682:1 801:1 813:1 843:1 873:1 959:1 1011:1 1082:1 1145:1 1244:1 1365:1 1456:1 1559:1 1629:1 1701:1 2008:1 2133:1 2172:1 2227:1 2368:1 2604:1 3019:1 3514:1 3519:1 3740:1 3832:1 3899:1 4018:1 4629:1 4669:1 4673:1 4679:1 4680:1 5370:1 5460:1 5631:1 5698:1 5818:1 5948:1 6845:1 7074:1 7277:1 7370:1 8256:1 8722:1 8932:1 9917:1 10183:1 10523:1 11349:1 11938:1 13944:1 15139:1 15856:1 16263:1 16577:1 20999:1 21301:1 21434:1 23549:1 23580:1 23776:1 25377:1 47562:1 70691:1 72285:1 77851:1 79989:1 93914:1 93915:1 93916:1 93917:1 93918:1 93919:1 93920:1 #
0.0097920719619923220211621384123646 1:1 3:1 6:1 16:1 17:1 22:1 24:1 28:1 33:1 34:1 45:1 48:1 56:1 57:1 69:1 74:1 76:1 78:1 81:1 83:1 86:1 94:1 111:1 140:1 142:1 187:1 192:1 193:1 208:1 212:1 239:1 258:1 261:1 287:1 331:1 333:1 336:1 414:1 450:1 452:1 453:1 457:1 474:1 478:1 499:1 544:1 551:1 555:1 575:1 608:1 866:1 880:1 936:1 1088:1 1112:1 1234:1 1264:1 1297:1 1318:1 1338:1 1455:1 1467:1 1584:1 1645:1 1688:1 2017:1 2018:1 2260:1 2335:1 2464:1 2597:1 2804:1 2855:1 2880:1 3044:1 3618:1 3763:1 3786:1 4294:1 4359:1 4671:1 5844:1 6751:1 8459:1 8895:1 8971:1 11802:1 12671:1 13591:1 13873:1 13966:1 13967:1 16441:1 16683:1 17251:1 17326:1 18627:1 22686:1 22942:1 23737:1 29885:1 32035:1 33989:1 40338:1 41261:1 48107:1 67799:1 73082:1 77201:1 78349:1 81331:1 82505:1 91696:1 92553:1 95908:1 95909:1 95910:1 95911:1 #
0.0062880761525627264230120516685929 1:1 3:1 6:1 8:1 14:1 19:1 21:1 22:1 24:1 45:1 56:1 78:1 81:1 92:1 124:1 152:1 175:1 181:1 215:1 244:1 247:1 289:1 466:1 520:1 608:1 710:1 764:1 882:1 1076:1 1145:1 1151:1 1162:1 1454:1 1467:1 1986:1 2149:1 2164:1 2172:1 3805:1 4393:1 5089:1 5151:1 5856:1 7147:1 7382:1 7642:1 8390:1 9337:1 11052:1 12143:1 14125:1 14428:1 14787:1 15030:1 15033:1 18792:1 18793:1 18794:1 18795:1 18796:1 18797:1 18798:1 18799:1 18800:1 18801:1 18802:1 18803:1 18804:1 18805:1 18806:1 18807:1 18808:1 18809:1 18810:1 18811:1 18812:1 18813:1 18814:1 18815:1 18816:1 18817:1 18818:1 18819:1 18820:1 18821:1 18822:1 18823:1 18824:1 18825:1 18826:1 18827:1 18828:1 18829:1 #
0.00059458067176912539602423590778812 1:1 3:1 6:1 8:1 10:1 11:1 12:1 14:1 17:1 19:1 22:1 28:1 33:1 45:1 57:1 69:1 76:1 81:1 88:1 90:1 140:1 142:1 173:1 175:1 178:1 187:1 190:1 208:1 240:1 248:1 274:1 287:1 291:1 354:1 370:1 375:1 389:1 413:1 414:1 452:1 495:1 504:1 520:1 528:1 573:1 594:1 682:1 691:1 744:1 884:1 885:1 898:1 926:1 984:1 1001:1 1006:1 1198:1 1234:1 1316:1 1349:1 1361:1 1387:1 1582:1 1767:1 1799:1 1982:1 2044:1 2067:1 2160:1 2179:1 2269:1 2285:1 2321:1 2328:1 2382:1 2724:1 2742:1 2902:1 3000:1 3117:1 3146:1 3268:1 3274:1 3503:1 3519:1 3602:1 3707:1 3721:1 3996:1 4097:1 5130:1 5278:1 5932:1 6031:1 6282:1 6619:1 6940:1 6943:1 7373:1 7669:1 9166:1 11181:1 12737:1 13849:1 14539:1 15654:1 16412:1 18301:1 33810:1 38055:1 64437:1 64438:1 64439:1 #
-0.0097920719619923220211621384123646 1:1 6:1 56:1 57:1 314:1 1571:1 14827:1 #
-0.0097920719619923220211621384123646 1:1 6:1 56:1 57:1 199:1 355:1 909:1 1120:1 1571:1 1910:1 3003:1 4202:1 #
-0.0097920719619923220211621384123646 1:1 6:1 213:1 244:1 462:1 739:1 1535:1 1571:1 3575:1 13005:1 #
-0.0097920719619923220211621384123646 1:1 6:1 14:1 32:1 69:1 70:1 81:1 395:1 520:1 1044:1 1139:1 1281:1 1386:1 11855:1 12005:1 22560:1 71442:1 #
-0.0097920719619923220211621384123646 1:1 3:1 6:1 14:1 17:1 24:1 28:1 29:1 32:1 45:1 66:1 69:1 73:1 74:1 88:1 92:1 108:1 124:1 142:1 148:1 152:1 175:1 181:1 187:1 203:1 240:1 286:1 335:1 375:1 414:1 424:1 520:1 533:1 535:1 575:1 592:1 608:1 637:1 649:1 711:1 744:1 892:1 973:1 978:1 1000:1 1020:1 1055:1 1056:1 1076:1 1146:1 1222:1 1960:1 2135:1 2227:1 2323:1 2342:1 2494:1 2672:1 2963:1 3507:1 3747:1 3899:1 3909:1 4149:1 4634:1 4843:1 5796:1 6062:1 7982:1 8320:1 8321:1 8327:1 8855:1 10332:1 10342:1 10429:1 14476:1 18903:1 21064:1 40070:1 45223:1 61168:1 #
0.0031561814280718961632510310977295 1:1 3:1 6:1 8:1 10:1 12:1 14:1 17:1 19:1 21:1 22:1 24:1 28:1 29:1 32:1 33:1 34:1 45:1 49:1 56:1 57:1 66:1 69:1 71:1 73:1 74:1 81:1 88:1 90:1 94:1 103:1 104:1 107:1 108:1 111:1 112:1 121:1 124:1 134:1 142:1 145:1 160:1 175:1 178:1 186:1 187:1 191:1 193:1 194:1 203:1 205:1 208:1 215:1 238:1 239:1 240:1 243:1 244:1 258:1 261:1 263:1 275:1 291:1 331:1 334:1 382:1 417:1 422:1 450:1 457:1 467:1 481:1 483:1 497:1 498:1 504:1 520:1 522:1 529:1 535:1 536:1 537:1 540:1 569:1 573:1 574:1 578:1 594:1 605:1 636:1 649:1 655:1 693:1 724:1 750:1 754:1 849:1 850:1 881:1 882:1 883:1 884:1 895:1 906:1 958:1 971:1 1011:1 1013:1 1038:1 1056:1 1067:1 1070:1 1081:1 1087:1 1088:1 1108:1 1125:1 1169:1 1191:1 1201:1 1244:1 1283:1 1303:1 1328:1 1338:1 1349:1 1366:1 1367:1 1384:1 1467:1 1469:1 1489:1 1565:1 1568:1 1581:1 1584:1 1589:1 1591:1 1624:1 1643:1 1708:1 1711:1 1768:1 1771:1 1781:1 1794:1 1827:1 1829:1 2174:1 2175:1 2179:1 2180:1 2220:1 2266:1 2328:1 2363:1 2414:1 2433:1 2435:1 2469:1 2638:1 2718:1 2788:1 2844:1 2887:1 2927:1 2969:1 2999:1 3046:1 3056:1 3070:1 3123:1 3139:1 3143:1 3190:1 3211:1 3377:1 3489:1 3633:1 3890:1 3943:1 3946:1 4042:1 4353:1 4365:1 4519:1 4760:1 5275:1 5315:1 5495:1 5621:1 5700:1 5800:1 5872:1 6010:1 6097:1 6249:1 6344:1 7129:1 7796:1 7836:1 8256:1 8622:1 9156:1 9397:1 9404:1 9439:1 9947:1 10090:1 10107:1 10331:1 10643:1 12803:1 13906:1 15863:1 16727:1 16970:1 16984:1 20868:1 22727:1 22728:1 22729:1 22730:1 22731:1 22732:1 22733:1 22734:1 22735:1 #
0.0016941935095028334574279726965074 1:1 3:1 6:1 8:1 12:1 14:1 17:1 19:1 21:1 22:1 24:1 28:1 33:1 34:1 39:1 40:1 45:1 48:1 56:1 57:1 59:1 66:1 69:1 73:1 74:1 76:1 78:1 81:1 88:1 92:1 94:1 98:1 107:1 111:1 113:1 122:1 142:1 143:1 152:1 159:1 160:1 161:1 175:1 178:1 181:1 184:1 186:1 187:1 191:1 193:1 194:1 215:1 239:1 244:1 246:1 248:1 258:1 273:1 274:1 283:1 286:1 331:1 333:1 335:1 344:1 350:1 414:1 424:1 435:1 466:1 481:1 520:1 533:1 535:1 555:1 560:1 573:1 585:1 600:1 608:1 641:1 644:1 654:1 655:1 656:1 676:1 710:1 712:1 724:1 792:1 803:1 845:1 866:1 886:1 895:1 896:1 926:1 933:1 958:1 1011:1 1026:1 1052:1 1067:1 1070:1 1087:1 1099:1 1133:1 1138:1 1223:1 1312:1 1484:1 1487:1 1550:1 1565:1 1635:1 1643:1 1645:1 1687:1 1958:1 1975:1 2003:1 2018:1 2093:1 2121:1 2143:1 2328:1 2357:1 2365:1 2411:1 2469:1 2470:1 2472:1 2477:1 2517:1 2617:1 2624:1 2672:1 2714:1 2765:1 2788:1 2891:1 2965:1 3000:1 3088:1 3092:1 3120:1 3144:1 3262:1 3379:1 3536:1 3568:1 3628:1 3655:1 3693:1 3870:1 3946:1 4077:1 4183:1 4321:1 4674:1 4800:1 5102:1 5151:1 5280:1 5309:1 5390:1 5532:1 5553:1 5800:1 5984:1 6020:1 6032:1 6179:1 6324:1 6418:1 6557:1 7130:1 7174:1 7310:1 7673:1 7766:1 8051:1 8206:1 8892:1 9085:1 9465:1 9834:1 10007:1 10213:1 10342:1 10573:1 10750:1 11012:1 11624:1 11757:1 11855:1 11937:1 11952:1 12648:1 12857:1 12921:1 13966:1 14476:1 15302:1 17101:1 17518:1 17823:1 17964:1 18052:1 18209:1 18539:1 20010:1 20776:1 21746:1 21890:1 23069:1 23290:1 23744:1 23890:1 25122:1 25880:1 26197:1 28148:1 28625:1 29187:1 33646:1 33647:1 33648:1 33649:1 33650:1 33651:1 33652:1 33653:1 33654:1 33655:1 33656:1 33657:1 33658:1 33659:1 33660:1 33661:1 33662:1 33663:1 33664:1 33665:1 33666:1 33667:1 33668:1 33669:1 33670:1 33671:1 33672:1 33673:1 33674:1 33675:1 33676:1 33677:1 33678:1 33679:1 33680:1 33681:1 33682:1 33683:1 #
-0.0016527530155939890686711546408105 1:1 3:1 6:1 8:1 10:1 12:1 14:1 15:1 16:1 17:1 19:1 21:1 22:1 24:1 26:1 27:1 29:1 32:1 33:1 37:1 39:1 40:1 45:1 48:1 56:1 57:1 59:1 66:1 69:1 73:1 74:1 76:1 78:1 81:1 84:1 86:1 88:1 92:1 98:1 103:1 104:1 107:1 108:1 111:1 112:1 116:1 123:1 130:1 136:1 140:1 142:1 143:1 152:1 159:1 160:1 161:1 175:1 178:1 181:1 186:1 187:1 190:1 191:1 192:1 194:1 196:1 203:1 208:1 209:1 212:1 213:1 215:1 238:1 239:1 240:1 241:1 244:1 247:1 248:1 271:1 274:1 280:1 283:1 287:1 288:1 290:1 332:1 333:1 335:1 336:1 338:1 344:1 385:1 390:1 409:1 410:1 414:1 417:1 424:1 425:1 426:1 438:1 450:1 452:1 460:1 466:1 474:1 476:1 481:1 492:1 495:1 520:1 533:1 537:1 539:1 550:1 551:1 552:1 554:1 555:1 559:1 565:1 566:1 570:1 571:1 575:1 577:1 585:1 600:1 630:1 636:1 637:1 653:1 654:1 661:1 670:1 671:1 693:1 699:1 711:1 742:1 757:1 845:1 849:1 850:1 851:1 852:1 855:1 862:1 866:1 870:1 926:1 927:1 957:1 958:1 965:1 1005:1 1037:1 1051:1 1064:1 1065:1 1067:1 1069:1 1070:1 1079:1 1081:1 1082:1 1086:1 1087:1 1088:1 1097:1 1107:1 1135:1 1138:1 1145:1 1162:1 1177:1 1179:1 1201:1 1244:1 1253:1 1318:1 1338:1 1339:1 1406:1 1409:1 1445:1 1464:1 1467:1 1539:1 1571:1 1591:1 1592:1 1635:1 1687:1 1692:1 1701:1 1781:1 1822:1 1829:1 1981:1 1982:1 2002:1 2008:1 2024:1 2030:1 2038:1 2143:1 2180:1 2252:1 2364:1 2382:1 2384:1 2385:1 2421:1 2464:1 2477:1 2520:1 2550:1 2629:1 2654:1 2678:1 2721:1 2765:1 2815:1 2906:1 2916:1 2933:1 2966:1 2976:1 2991:1 3000:1 3004:1 3108:1 3148:1 3155:1 3185:1 3259:1 3276:1 3324:1 3325:1 3379:1 3383:1 3469:1 3485:1 3504:1 3570:1 3573:1 3624:1 3694:1 3744:1 3820:1 3940:1 3944:1 3991:1 4073:1 4077:1 4092:1 4195:1 4202:1 4331:1 4629:1 4636:1 4674:1 4746:1 4805:1 5106:1 5109:1 5119:1 5181:1 5190:1 5231:1 5294:1 5390:1 5391:1 5412:1 5500:1 5593:1 5606:1 5833:1 5843:1 5993:1 6234:1 6350:1 6396:1 6411:1 6457:1 6660:1 6844:1 7008:1 7130:1 7188:1 7213:1 7323:1 7651:1 7766:1 7782:1 8004:1 8023:1 8084:1 8211:1 8287:1 8300:1 8304:1 8533:1 8536:1 8716:1 8726:1 8730:1 8747:1 8892:1 8924:1 8976:1 8980:1 9059:1 9082:1 9125:1 9143:1 9775:1 9895:1 10068:1 10201:1 10562:1 10694:1 11007:1 11150:1 11388:1 11402:1 11946:1 11952:1 11965:1 12082:1 12143:1 12374:1 12527:1 12829:1 13096:1 13114:1 13578:1 14201:1 14208:1 14265:1 14471:1 14475:1 14864:1 14981:1 15180:1 15623:1 15718:1 15834:1 16174:1 16449:1 16474:1 16477:1 16801:1 16851:1 17143:1 17637:1 18052:1 18128:1 18672:1 18689:1 18705:1 19125:1 19551:1 19582:1 20118:1 20337:1 20433:1 21125:1 21296:1 21902:1 22102:1 22763:1 22799:1 22942:1 23724:1 25106:1 25122:1 27507:1 28063:1 28069:1 28148:1 28233:1 28281:1 28626:1 29541:1 31158:1 31283:1 31504:1 31645:1 31685:1 33157:1 33160:1 33679:1 34035:1 34130:1 34288:1 34698:1 36050:1 37607:1 39182:1 42246:1 42292:1 44542:1 45406:1 46534:1 47011:1 48183:1 48475:1 49757:1 49767:1 49771:1 49773:1 49774:1 50326:1 51094:1 55793:1 56549:1 58339:1 59997:1 61786:1 64310:1 64421:1 66445:1 68395:1 76376:1 76377:1 76378:1 76379:1 76380:1 76381:1 76382:1 76383:1 76384:1 76385:1 76386:1 76387:1 76388:1 76389:1 76390:1 76391:1 76392:1 76393:1 76394:1 76395:1 76396:1 76397:1 76398:1 #
-0.0097920719619923220211621384123646 1:1 6:1 8:1 12:1 14:1 17:1 19:1 22:1 33:1 45:1 76:1 81:1 88:1 92:1 95:1 107:1 121:1 149:1 258:1 284:1 290:1 413:1 414:1 452:1 485:1 498:1 520:1 644:1 806:1 807:1 845:1 937:1 1082:1 1087:1 1141:1 1197:1 1251:1 1318:1 1454:1 1640:1 1971:1 2112:1 2179:1 2269:1 2546:1 2968:1 3042:1 3148:1 3351:1 4005:1 4063:1 4634:1 4704:1 4711:1 4722:1 5057:1 5413:1 7970:1 8359:1 10354:1 10429:1 15998:1 19818:1 20043:1 20044:1 20045:1 20046:1 20047:1 #
-0.008660764087741077907334208418888 1:1 3:1 6:1 8:1 10:1 12:1 14:1 17:1 19:1 21:1 22:1 24:1 28:1 34:1 39:1 45:1 48:1 55:1 56:1 57:1 66:1 69:1 73:1 74:1 76:1 78:1 81:1 86:1 88:1 90:1 92:1 98:1 104:1 121:1 124:1 134:1 136:1 140:1 142:1 143:1 152:1 159:1 161:1 171:1 173:1 175:1 178:1 186:1 187:1 190:1 192:1 203:1 208:1 212:1 215:1 240:1 241:1 243:1 244:1 247:1 258:1 267:1 274:1 279:1 283:1 287:1 290:1 331:1 335:1 336:1 337:1 338:1 344:1 413:1 414:1 415:1 422:1 435:1 438:1 439:1 444:1 452:1 460:1 466:1 474:1 478:1 495:1 498:1 535:1 536:1 540:1 550:1 571:1 574:1 594:1 600:1 608:1 615:1 630:1 636:1 644:1 705:1 710:1 711:1 766:1 801:1 803:1 846:1 849:1 850:1 866:1 870:1 880:1 896:1 921:1 926:1 937:1 984:1 1022:1 1052:1 1062:1 1067:1 1068:1 1070:1 1076:1 1082:1 1087:1 1096:1 1135:1 1139:1 1145:1 1162:1 1173:1 1243:1 1311:1 1358:1 1366:1 1403:1 1467:1 1482:1 1559:1 1564:1 1571:1 1591:1 1592:1 1603:1 1609:1 1701:1 1767:1 1827:1 1829:1 2017:1 2121:1 2180:1 2255:1 2336:1 2351:1 2381:1 2384:1 2410:1 2419:1 2426:1 2459:1 2469:1 2477:1 2508:1 2550:1 2714:1 2736:1 2780:1 2920:1 2959:1 3121:1 3144:1 3169:1 3265:1 3316:1 3339:1 3384:1 3414:1 3575:1 3628:1 3640:1 3718:1 3740:1 3744:1 3969:1 3998:1 4002:1 4016:1 4029:1 4042:1 4073:1 4077:1 4546:1 4550:1 4610:1 4627:1 4629:1 4660:1 4746:1 4830:1 4989:1 5090:1 5145:1 5243:1 5397:1 5398:1 5584:1 5698:1 5847:1 5948:1 5949:1 5961:1 5984:1 6058:1 6073:1 6260:1 6324:1 6396:1 6413:1 6437:1 6830:1 6852:1 7130:1 7241:1 7309:1 7770:1 8214:1 8256:1 9071:1 9085:1 9927:1 10313:1 10554:1 10676:1 11517:1 12080:1 13379:1 13591:1 14242:1 14707:1 14745:1 14864:1 15394:1 15540:1 15808:1 16167:1 16443:1 17163:1 17960:1 18202:1 18203:1 18204:1 18205:1 18206:1 18207:1 18656:1 20348:1 21166:1 21594:1 22475:1 23123:1 23710:1 25389:1 26541:1 27508:1 27770:1 28542:1 29705:1 30613:1 32053:1 32500:1 32892:1 33328:1 33927:1 34469:1 37862:1 39221:1 39500:1 40405:1 40785:1 42667:1 42668:1 42669:1 42670:1 42671:1 42672:1 42673:1 42674:1 42675:1 42676:1 42677:1 #
0.0073152344566649067300612152564554 1:1 3:1 19:1 52:1 171:1 439:1 711:1 1044:1 1096:1 1201:1 1243:1 1651:1 2692:1 3966:1 5112:1 6938:1 7985:1 10068:1 11027:1 11689:1 12441:1 12776:1 14126:1 14398:1 14406:1 15923:1 16148:1 16779:1 17850:1 20179:1 21863:1 25036:1 27017:1 28727:1 31202:1 31261:1 35294:1 35830:1 38929:1 62286:1 66506:1 69745:1 85392:1 86744:1 86745:1 86746:1 86747:1 86748:1 86749:1 86750:1 86751:1 86752:1 86753:1 86754:1 86755:1 86756:1 86757:1 86758:1 #
-0.0097920719619923220211621384123646 1:1 3:1 8:1 26:1 30:1 66:1 71:1 81:1 161:1 238:1 239:1 253:1 335:1 649:1 1051:1 1066:1 1216:1 2701:1 5302:1 10085:1 11583:1 35777:1 35778:1 35779:1 35780:1 #
-0.0097920719619923220211621384123646 1:1 3:1 6:1 8:1 71:1 108:1 253:1 640:1 892:1 1277:1 3626:1 8637:1 #
-0.0097591277972857333466993878801077 1:1 6:1 8:1 9:1 17:1 19:1 21:1 33:1 34:1 66:1 81:1 88:1 111:1 136:1 142:1 145:1 152:1 154:1 159:1 161:1 166:1 175:1 178:1 181:1 194:1 258:1 287:1 415:1 461:1 605:1 624:1 667:1 711:1 820:1 1068:1 1283:1 1311:1 1312:1 2013:1 2017:1 2742:1 3276:1 4553:1 4555:1 5149:1 5907:1 6002:1 8978:1 14399:1 20774:1 53168:1 53169:1 53170:1 #
-0.0097920719619923220211621384123646 1:1 6:1 8:1 12:1 14:1 17:1 19:1 28:1 33:1 45:1 56:1 57:1 66:1 69:1 76:1 78:1 81:1 88:1 107:1 142:1 152:1 175:1 183:1 187:1 193:1 215:1 258:1 274:1 353:1 414:1 481:1 495:1 502:1 528:1 551:1 578:1 585:1 610:1 637:1 670:1 672:1 682:1 688:1 689:1 692:1 845:1 846:1 874:1 935:1 973:1 1000:1 1082:1 1131:1 1135:1 1141:1 1267:1 1371:1 1469:1 1654:1 1799:1 2013:1 2252:1 2346:1 2426:1 2476:1 2571:1 2602:1 3102:1 3111:1 3148:1 3384:1 3530:1 3913:1 3923:1 4462:1 4744:1 5132:1 5532:1 5533:1 5601:1 5638:1 5735:1 5865:1 6026:1 6062:1 6704:1 6977:1 7192:1 7655:1 7774:1 8363:1 8656:1 9786:1 10346:1 11091:1 16746:1 58213:1 71252:1 93334:1 93335:1 93336:1 #
0.0060877722479137259814496729859457 1:1 3:1 6:1 8:1 16:1 17:1 19:1 57:1 58:1 66:1 86:1 88:1 90:1 98:1 111:1 152:1 159:1 161:1 338:1 466:1 520:1 588:1 608:1 661:1 711:1 712:1 1253:1 1260:1 1482:1 1591:1 1701:1 1829:1 3999:1 4710:1 5855:1 6120:1 6332:1 7249:1 8598:1 11947:1 12671:1 35263:1 49987:1 49988:1 #
-0.0076460869132601756714695540040339 1:1 6:1 8:1 10:1 14:1 15:1 16:1 17:1 28:1 56:1 69:1 78:1 81:1 86:1 88:1 89:1 90:1 92:1 107:1 117:1 142:1 152:1 159:1 175:1 181:1 187:1 203:1 282:1 283:1 287:1 335:1 379:1 466:1 474:1 712:1 794:1 866:1 1048:1 1138:1 1646:1 1781:1 1959:1 3166:1 3383:1 3633:1 3739:1 4085:1 4207:1 5172:1 7651:1 7748:1 10776:1 13003:1 32833:1 35127:1 #
-0.0097920719619923220211621384123646 1:1 8:1 10:1 19:1 45:1 55:1 56:1 57:1 88:1 178:1 287:1 335:1 355:1 433:1 644:1 850:1 1010:1 1381:1 1720:1 1790:1 1827:1 2110:1 2467:1 2468:1 3097:1 3664:1 9149:1 17955:1 42757:1 #
-0.0097920719619923220211621384123646 1:1 3946:1 #
0.0097920719619923220211621384123646 1:1 3:1 8:1 19:1 33:1 56:1 66:1 69:1 88:1 107:1 109:1 111:1 145:1 240:1 244:1 290:1 335:1 488:1 495:1 649:1 781:1 1616:1 1696:1 2502:1 5135:1 5392:1 8996:1 8998:1 9860:1 10493:1 10506:1 10507:1 11446:1 12458:1 13514:1 15118:1 15891:1 16012:1 17523:1 17525:1 19527:1 19574:1 22303:1 22304:1 22305:1 22307:1 22308:1 22311:1 22312:1 22314:1 22315:1 22316:1 22317:1 45965:1 45966:1 #
0.0089900797920143375729917778471645 1:1 11:1 34:1 40:1 73:1 107:1 140:1 178:1 181:1 270:1 283:1 287:1 334:1 335:1 336:1 397:1 402:1 410:1 413:1 418:1 533:1 552:1 601:1 637:1 655:1 660:1 757:1 760:1 828:1 870:1 882:1 921:1 1026:1 1056:1 1065:1 1097:1 1223:1 1652:1 1663:1 1964:1 2071:1 2524:1 2678:1 2789:1 2829:1 3021:1 3108:1 3490:1 3630:1 4009:1 4718:1 5302:1 5824:1 5907:1 6404:1 6420:1 7092:1 7241:1 8004:1 8971:1 9786:1 10139:1 10991:1 14588:1 16821:1 27935:1 32218:1 33769:1 34470:1 69765:1 #
-0.0025497261601247086203192449005428 1:1 3:1 6:1 8:1 17:1 24:1 69:1 81:1 110:1 142:1 486:1 691:1 891:1 1000:1 1624:1 1716:1 2206:1 2356:1 3051:1 3112:1 3133:1 4322:1 4452:1 5198:1 6541:1 6542:1 6661:1 7825:1 8228:1 10373:1 20184:1 26239:1 26812:1 43968:1 #
0.0097920719619923220211621384123646 1:1 3:1 6:1 19:1 24:1 98:1 108:1 136:1 142:1 410:1 476:1 594:1 1065:1 1591:1 1746:1 2524:1 3589:1 5343:1 12617:1 13145:1 16923:1 20139:1 36585:1 42153:1 44493:1 46806:1 86646:1 98559:1 98560:1 #
0.0097920719619923220211621384123646 1:1 6:1 8:1 16:1 17:1 19:1 48:1 86:1 88:1 98:1 136:1 159:1 161:1 212:1 242:1 283:1 287:1 314:1 415:1 568:1 1049:1 1072:1 1312:1 1368:1 1591:1 1592:1 2180:1 3589:1 3946:1 5256:1 10068:1 11803:1 12234:1 47014:1 69759:1 69760:1 #
0.0097920719619923220211621384123646 1:1 3:1 52:1 98:1 171:1 891:1 1201:1 1216:1 1243:1 2530:1 3158:1 3966:1 5475:1 5919:1 5928:1 6272:1 7056:1 7223:1 9049:1 9398:1 10038:1 12857:1 14265:1 14405:1 15258:1 16614:1 17071:1 19402:1 42706:1 47942:1 49990:1 49991:1 49992:1 49993:1 49994:1 49995:1 49996:1 49997:1 49998:1 49999:1 50000:1 50001:1 50002:1 50003:1 50004:1 50005:1 50006:1 50007:1 50008:1 50009:1 50010:1 50011:1 50012:1 50013:1 50014:1 50015:1 50016:1 50017:1 #
-0.0020099672507399818192908025338284 1:1 3:1 6:1 8:1 10:1 12:1 16:1 17:1 19:1 21:1 22:1 23:1 24:1 29:1 30:1 32:1 33:1 34:1 45:1 55:1 56:1 57:1 59:1 66:1 67:1 69:1 73:1 81:1 88:1 92:1 94:1 98:1 107:1 108:1 112:1 123:1 124:1 141:1 142:1 152:1 156:1 159:1 160:1 161:1 175:1 178:1 187:1 190:1 194:1 208:1 210:1 212:1 213:1 215:1 216:1 234:1 239:1 240:1 242:1 244:1 248:1 251:1 258:1 263:1 274:1 282:1 287:1 290:1 335:1 338:1 344:1 375:1 385:1 388:1 413:1 414:1 424:1 426:1 427:1 435:1 444:1 453:1 454:1 463:1 466:1 467:1 481:1 484:1 488:1 492:1 495:1 498:1 499:1 504:1 509:1 520:1 528:1 544:1 551:1 570:1 571:1 582:1 588:1 595:1 596:1 601:1 604:1 612:1 641:1 643:1 653:1 682:1 698:1 711:1 712:1 743:1 757:1 764:1 766:1 850:1 854:1 870:1 894:1 896:1 923:1 925:1 926:1 940:1 958:1 967:1 981:1 1008:1 1013:1 1046:1 1052:1 1063:1 1065:1 1076:1 1081:1 1082:1 1110:1 1118:1 1126:1 1135:1 1191:1 1201:1 1243:1 1289:1 1318:1 1322:1 1328:1 1349:1 1371:1 1376:1 1442:1 1461:1 1467:1 1526:1 1591:1 1592:1 1617:1 1643:1 1647:1 1663:1 1800:1 1826:1 1904:1 1937:1 1938:1 1996:1 2156:1 2180:1 2218:1 2228:1 2236:1 2259:1 2286:1 2357:1 2361:1 2381:1 2420:1 2429:1 2459:1 2462:1 2469:1 2540:1 2545:1 2547:1 2559:1 2611:1 2781:1 2860:1 2924:1 2967:1 2992:1 3070:1 3090:1 3143:1 3170:1 3316:1 3317:1 3324:1 3351:1 3514:1 3618:1 3633:1 3732:1 3940:1 4065:1 4118:1 4122:1 4195:1 4666:1 4815:1 4826:1 5089:1 5093:1 5158:1 5316:1 5376:1 5492:1 5599:1 5614:1 5772:1 6120:1 6184:1 6265:1 6276:1 6555:1 6996:1 7075:1 7098:1 7288:1 7374:1 7394:1 7750:1 7772:1 7883:1 8025:1 8239:1 8249:1 8425:1 8507:1 8546:1 9947:1 10040:1 10728:1 10825:1 10943:1 10973:1 11361:1 13214:1 13542:1 14088:1 14729:1 15800:1 17386:1 20321:1 20750:1 20774:1 21615:1 22394:1 22436:1 25867:1 26160:1 28016:1 28346:1 29089:1 32584:1 33235:1 34598:1 35128:1 35135:1 40818:1 48480:1 49550:1 49551:1 59673:1 65989:1 77337:1 77338:1 77339:1 77340:1 77341:1 77342:1 77343:1 77344:1 77345:1 77346:1 77347:1 77348:1 77349:1 77350:1 77351:1 77352:1 77353:1 77354:1 77355:1 77356:1 77357:1 77358:1 77359:1 77360:1 77361:1 77362:1 77363:1 77364:1 77365:1 77366:1 77367:1 77368:1 77369:1 77370:1 77371:1 77372:1 77373:1 77374:1 77375:1 77376:1 77377:1 77378:1 77379:1 77380:1 77381:1 77382:1 84516:1 84517:1 84518:1 #
-0.0023490392354573188214705847798314 1:1 3:1 6:1 8:1 10:1 12:1 14:1 17:1 19:1 21:1 28:1 30:1 33:1 40:1 45:1 48:1 56:1 57:1 59:1 66:1 69:1 70:1 73:1 81:1 83:1 88:1 90:1 92:1 93:1 94:1 98:1 102:1 112:1 142:1 143:1 148:1 152:1 160:1 161:1 175:1 178:1 187:1 197:1 199:1 208:1 239:1 244:1 258:1 274:1 286:1 287:1 303:1 314:1 414:1 417:1 426:1 450:1 452:1 504:1 520:1 535:1 551:1 558:1 592:1 594:1 608:1 615:1 627:1 641:1 691:1 693:1 711:1 744:1 798:1 884:1 885:1 892:1 926:1 927:1 936:1 980:1 987:1 988:1 1026:1 1067:1 1103:1 1144:1 1243:1 1258:1 1283:1 1318:1 1489:1 1553:1 1559:1 1565:1 1571:1 1589:1 1591:1 1616:1 1645:1 1687:1 1827:1 1903:1 1924:1 1925:1 2115:1 2133:1 2149:1 2224:1 2256:1 2257:1 2259:1 2315:1 2328:1 2351:1 2356:1 2365:1 2444:1 2460:1 2498:1 2507:1 2538:1 2724:1 3064:1 3088:1 3098:1 3100:1 3591:1 3721:1 4003:1 4483:1 4617:1 4636:1 4747:1 5027:1 5178:1 5385:1 5391:1 5396:1 5400:1 5401:1 5402:1 5421:1 5569:1 5793:1 6400:1 6634:1 6863:1 7063:1 7092:1 7130:1 7231:1 7651:1 9833:1 11080:1 11548:1 12194:1 12383:1 14131:1 15334:1 16281:1 17119:1 20621:1 20622:1 20623:1 20624:1 20625:1 20626:1 20627:1 20628:1 20629:1 20630:1 20631:1 #
-0.0097920719619923220211621384123646 1:1 3:1 6:1 8:1 12:1 14:1 17:1 19:1 24:1 28:1 34:1 45:1 48:1 56:1 57:1 61:1 66:1 73:1 74:1 81:1 92:1 94:1 98:1 107:1 110:1 141:1 145:1 160:1 161:1 176:1 178:1 184:1 187:1 194:1 239:1 244:1 248:1 354:1 414:1 504:1 520:1 540:1 571:1 604:1 612:1 613:1 614:1 697:1 710:1 744:1 792:1 798:1 896:1 926:1 948:1 958:1 969:1 1051:1 1067:1 1087:1 1103:1 1144:1 1267:1 1283:1 1349:1 1366:1 1448:1 1462:1 1636:1 1642:1 1645:1 1651:1 1687:1 1767:1 1959:1 2179:1 2320:1 2365:1 2410:1 2426:1 2518:1 2870:1 3022:1 3144:1 3504:1 3568:1 3589:1 3593:1 3926:1 3983:1 4609:1 4665:1 5255:1 5259:1 5271:1 5280:1 5805:1 6763:1 6843:1 7130:1 8134:1 8867:1 8981:1 9894:1 9898:1 10373:1 11733:1 11912:1 11938:1 12466:1 13873:1 14476:1 14863:1 16347:1 24465:1 32893:1 38052:1 38053:1 99989:1 #
-0.0097920719619923220211621384123646 1:1 3:1 29:1 1345:1 3073:1 4470:1 8766:1 30671:1 99804:1 #
-0.0097920719619923220211621384123646 1:1 385:1 2143:1 #
-0.0077667496755431716243256445864063 1:1 17:1 71:1 109:1 152:1 165:1 231:1 711:1 769:1 934:1 1076:1 1104:1 1198:1 1826:1 7393:1 7405:1 7418:1 7438:1 7494:1 7598:1 7608:1 12031:1 15238:1 20076:1 20090:1 27067:1 37524:1 46166:1 46236:1 46241:1 51003:1 55677:1 68984:1 79342:1 80080:1 80489:1 80490:1 80491:1 80492:1 80493:1 80494:1 80495:1 80496:1 80497:1 80498:1 80499:1 80500:1 80501:1 80502:1 80503:1 80504:1 80505:1 80506:1 80507:1 80508:1 #
0.00025748681642735217738743314086491 1:1 6:1 14:1 17:1 33:1 43:1 56:1 57:1 98:1 142:1 152:1 161:1 175:1 434:1 630:1 694:1 710:1 898:1 1055:1 1069:1 1082:1 1448:1 1464:1 1591:1 1592:1 1687:1 1734:1 1813:1 1826:1 1840:1 1860:1 1903:1 2024:1 2135:1 2311:1 2365:1 2374:1 2426:1 2476:1 2644:1 2931:1 2954:1 3016:1 3027:1 3279:1 3310:1 3401:1 3518:1 3575:1 3662:1 3744:1 3942:1 3943:1 3946:1 3992:1 3998:1 4207:1 4208:1 4499:1 4620:1 4816:1 4983:1 5291:1 5499:1 5883:1 6228:1 7028:1 7165:1 7213:1 7381:1 7830:1 8019:1 8022:1 8086:1 8798:1 8826:1 8976:1 9092:1 9203:1 9216:1 10068:1 10111:1 10166:1 10213:1 10570:1 10770:1 10979:1 11138:1 11148:1 11193:1 11201:1 11627:1 11633:1 11704:1 12274:1 12362:1 12397:1 12428:1 12963:1 13584:1 13731:1 13812:1 14078:1 14750:1 14774:1 14811:1 14832:1 14932:1 14939:1 14979:1 14995:1 15136:1 15507:1 15509:1 15615:1 16013:1 16119:1 16955:1 16964:1 17400:1 17620:1 17900:1 17986:1 18484:1 18549:1 18586:1 18856:1 19102:1 19215:1 19230:1 19245:1 19250:1 19311:1 19312:1 19344:1 19348:1 19350:1 19375:1 19400:1 19410:1 19747:1 19780:1 20127:1 20639:1 21467:1 21538:1 21851:1 23623:1 23983:1 24020:1 24177:1 25406:1 25748:1 25756:1 26192:1 26386:1 26980:1 27055:1 27765:1 27967:1 28122:1 28205:1 28483:1 28690:1 28788:1 28794:1 29172:1 29229:1 29234:1 29432:1 29713:1 30143:1 31095:1 31371:1 31466:1 32040:1 32339:1 32574:1 32805:1 33001:1 33547:1 34231:1 34748:1 34754:1 34804:1 35048:1 35092:1 35238:1 35472:1 35519:1 36445:1 36501:1 36807:1 36883:1 37110:1 38100:1 38272:1 38333:1 38588:1 38768:1 38843:1 38880:1 38889:1 38893:1 38912:1 38921:1 38935:1 39136:1 39149:1 39367:1 39518:1 39674:1 40343:1 40529:1 40798:1 42092:1 42424:1 42630:1 42914:1 43040:1 43365:1 43390:1 43463:1 43482:1 43491:1 43777:1 44002:1 44232:1 44973:1 45662:1 45682:1 45689:1 45714:1 45725:1 45738:1 46837:1 46866:1 47895:1 47900:1 48767:1 49000:1 49098:1 49566:1 50334:1 50426:1 50553:1 50576:1 50592:1 51142:1 51373:1 51722:1 51877:1 52983:1 53899:1 53995:1 54057:1 54133:1 54333:1 54373:1 54782:1 55521:1 55522:1 55523:1 55524:1 55525:1 55526:1 55527:1 55528:1 55529:1 55530:1 55531:1 55532:1 55533:1 55534:1 55535:1 55536:1 55537:1 55538:1 55539:1 55540:1 55541:1 55542:1 55543:1 55544:1 55545:1 55546:1 55547:1 55548:1 55549:1 55550:1 55551:1 55552:1 55553:1 55554:1 55555:1 55556:1 55557:1 55558:1 55559:1 55560:1 55561:1 55562:1 55563:1 55564:1 55565:1 55566:1 55567:1 55568:1 55569:1 55570:1 55571:1 55572:1 55573:1 55574:1 55575:1 55576:1 55577:1 55578:1 55579:1 55580:1 55581:1 55582:1 55583:1 55584:1 55585:1 55586:1 55587:1 55588:1 55589:1 55590:1 55591:1 55592:1 55593:1 55594:1 55595:1 55596:1 55597:1 55598:1 55599:1 55600:1 55601:1 55602:1 55603:1 55604:1 55605:1 55606:1 55607:1 55608:1 55609:1 55610:1 55611:1 55612:1 55613:1 55614:1 55615:1 55616:1 55617:1 55618:1 55619:1 55620:1 55621:1 55622:1 55623:1 55624:1 55625:1 55626:1 55627:1 55628:1 55629:1 55630:1 55631:1 55632:1 55633:1 55634:1 55635:1 55636:1 55637:1 55638:1 55639:1 55640:1 55641:1 55642:1 55643:1 55644:1 55645:1 55646:1 55647:1 #
0.0034772047693828822892414542877759 1:1 3:1 6:1 8:1 10:1 12:1 14:1 17:1 19:1 21:1 22:1 24:1 28:1 32:1 33:1 34:1 38:1 45:1 56:1 57:1 66:1 69:1 70:1 71:1 73:1 76:1 77:1 81:1 84:1 88:1 95:1 102:1 107:1 110:1 124:1 140:1 142:1 152:1 160:1 161:1 171:1 175:1 178:1 181:1 186:1 187:1 190:1 208:1 212:1 215:1 240:1 244:1 275:1 290:1 291:1 335:1 344:1 369:1 377:1 424:1 451:1 453:1 460:1 466:1 481:1 488:1 495:1 498:1 520:1 585:1 588:1 604:1 636:1 640:1 649:1 691:1 693:1 711:1 744:1 821:1 850:1 870:1 894:1 906:1 938:1 958:1 996:1 1012:1 1044:1 1135:1 1145:1 1201:1 1243:1 1276:1 1289:1 1315:1 1328:1 1349:1 1366:1 1461:1 1467:1 1550:1 1565:1 1589:1 1609:1 1615:1 1643:1 1701:1 1708:1 1711:1 1768:1 1829:1 1913:1 2180:1 2218:1 2233:1 2260:1 2351:1 2392:1 2427:1 2476:1 2638:1 2781:1 2835:1 3000:1 3046:1 3070:1 3143:1 3144:1 3317:1 3377:1 3711:1 3740:1 4710:1 4758:1 4826:1 5139:1 5309:1 5675:1 6102:1 6190:1 7196:1 7199:1 7673:1 7764:1 7781:1 7899:1 8134:1 9103:1 9165:1 9279:1 9947:1 13715:1 14896:1 15910:1 16983:1 20174:1 22028:1 23600:1 29895:1 32657:1 44496:1 53806:1 53807:1 53808:1 #
0.0017167403821332157150270081302779 1:1 3:1 6:1 8:1 10:1 12:1 14:1 17:1 19:1 21:1 24:1 33:1 45:1 48:1 56:1 57:1 66:1 69:1 72:1 73:1 74:1 75:1 81:1 88:1 92:1 93:1 98:1 103:1 104:1 110:1 124:1 136:1 140:1 142:1 160:1 161:1 171:1 173:1 175:1 178:1 213:1 239:1 240:1 244:1 274:1 287:1 335:1 414:1 426:1 460:1 476:1 498:1 508:1 520:1 528:1 551:1 573:1 588:1 594:1 600:1 601:1 604:1 605:1 610:1 615:1 710:1 711:1 724:1 743:1 750:1 764:1 822:1 850:1 885:1 896:1 937:1 973:1 1005:1 1020:1 1026:1 1087:1 1135:1 1139:1 1143:1 1145:1 1146:1 1173:1 1188:1 1243:1 1289:1 1381:1 1387:1 1396:1 1448:1 1466:1 1489:1 1571:1 1591:1 1592:1 1624:1 1640:1 1643:1 1663:1 1676:1 1686:1 1724:1 1767:1 1801:1 1829:1 1959:1 1965:1 1971:1 1978:1 2110:1 2132:1 2133:1 2137:1 2171:1 2172:1 2174:1 2179:1 2181:1 2183:1 2209:1 2220:1 2224:1 2289:1 2300:1 2303:1 2320:1 2327:1 2368:1 2386:1 2401:1 2411:1 2418:1 2426:1 2427:1 2547:1 2560:1 2701:1 2811:1 2844:1 2853:1 2924:1 2969:1 3097:1 3144:1 3190:1 3214:1 3216:1 3557:1 3625:1 3628:1 3633:1 3861:1 4296:1 4647:1 4667:1 4747:1 5527:1 5548:1 5614:1 6033:1 6104:1 6676:1 6889:1 7184:1 7284:1 7347:1 7374:1 7620:1 8566:1 8752:1 9156:1 9304:1 9900:1 9974:1 10130:1 10967:1 11296:1 12615:1 12795:1 12876:1 13062:1 13622:1 13922:1 14342:1 14873:1 15542:1 20559:1 21550:1 26374:1 72416:1 79651:1 79652:1 79653:1 79654:1 79655:1 79656:1 79657:1 79658:1 79659:1 #
0.0097920719619923220211621384123646 1:1 3:1 6:1 8:1 32:1 45:1 48:1 56:1 69:1 81:1 88:1 111:1 161:1 178:1 194:1 261:1 335:1 411:1 414:1 426:1 466:1 520:1 604:1 608:1 669:1 753:1 1082:1 1086:1 1087:1 1571:1 1701:1 2288:1 2651:1 3516:1 3940:1 4419:1 5525:1 5864:1 6073:1 6930:1 7651:1 11019:1 11402:1 11500:1 11912:1 13754:1 14234:1 21186:1 25540:1 28800:1 29547:1 61242:1 61243:1 61244:1 61245:1 61246:1 61247:1 #
0.0097920719619923220211621384123646 1:1 94:1 929:1 3575:1 9268:1 20782:1 52800:1 #
0.0012543685729255022419381671028304 1:1 3:1 6:1 8:1 12:1 15:1 17:1 19:1 21:1 22:1 24:1 33:1 34:1 40:1 44:1 56:1 58:1 66:1 69:1 71:1 73:1 81:1 83:1 89:1 90:1 108:1 121:1 124:1 125:1 130:1 142:1 148:1 152:1 154:1 160:1 161:1 174:1 175:1 181:1 183:1 190:1 192:1 193:1 214:1 215:1 239:1 243:1 244:1 248:1 271:1 273:1 274:1 283:1 287:1 333:1 335:1 336:1 359:1 375:1 417:1 424:1 426:1 457:1 466:1 474:1 481:1 488:1 493:1 495:1 540:1 551:1 552:1 578:1 604:1 658:1 662:1 679:1 705:1 711:1 769:1 781:1 807:1 866:1 882:1 884:1 923:1 937:1 958:1 1050:1 1082:1 1086:1 1118:1 1125:1 1311:1 1318:1 1359:1 1467:1 1474:1 1475:1 1484:1 1535:1 1565:1 1571:1 1663:1 1716:1 1808:1 1960:1 1964:1 2103:1 2165:1 2213:1 2255:1 2260:1 2437:1 2464:1 2476:1 3196:1 3339:1 3609:1 3628:1 4060:1 4257:1 4632:1 4768:1 4777:1 4929:1 5089:1 5532:1 5800:1 5903:1 6218:1 6341:1 6480:1 6751:1 7775:1 8023:1 8051:1 8630:1 8710:1 8737:1 8957:1 8966:1 9784:1 9846:1 10518:1 10958:1 10980:1 10990:1 10991:1 10992:1 10993:1 10994:1 10995:1 10996:1 10997:1 10998:1 10999:1 11000:1 11001:1 11002:1 11003:1 11004:1 11005:1 11006:1 11007:1 11008:1 11009:1 11010:1 11011:1 11012:1 11013:1 11014:1 11015:1 11016:1 11017:1 11018:1 11019:1 11020:1 11021:1 11022:1 11023:1 11024:1 11025:1 11026:1 11027:1 11028:1 11029:1 11030:1 11031:1 11032:1 11033:1 11034:1 11035:1 11036:1 11037:1 11038:1 11039:1 #
-0.0097920719619923220211621384123646 1:1 3:1 6:1 8:1 10:1 14:1 15:1 16:1 17:1 19:1 22:1 24:1 28:1 33:1 69:1 81:1 88:1 98:1 107:1 147:1 171:1 178:1 183:1 208:1 242:1 244:1 261:1 267:1 287:1 382:1 418:1 472:1 590:1 605:1 608:1 615:1 817:1 946:1 960:1 1011:1 1144:1 1243:1 1244:1 1592:1 1640:1 1748:1 1978:1 2220:1 2227:1 2272:1 2479:1 2779:1 2970:1 3040:1 3704:1 3946:1 4053:1 4122:1 4396:1 4397:1 4457:1 4471:1 5854:1 6251:1 6607:1 7377:1 7578:1 8032:1 8589:1 13500:1 16205:1 32752:1 41871:1 41872:1 43121:1 46655:1 82392:1 #
0.0010733484931362625210832240085779 1:1 3:1 12:1 17:1 45:1 56:1 81:1 98:1 159:1 181:1 191:1 321:1 466:1 585:1 658:1 798:1 898:1 1180:1 1591:1 1592:1 1642:1 1701:1 2321:1 2444:1 3991:1 5550:1 5876:1 6495:1 6559:1 11762:1 14131:1 24494:1 24495:1 24496:1 24497:1 24498:1 25997:1 28670:1 91124:1 91125:1 #
0.0097920719619923220211621384123646 1:1 33:1 154:1 159:1 240:1 3320:1 11051:1 12031:1 13961:1 14428:1 22422:1 #
